user_0:4.28464602673034 1.1043717682783756 -1.8357473384379275 2.296610026748427 -0.8394258633984659 -1.5084971358322155 -2.925521680978975 -3.7691821186699253 1.9848520249085602 1.9201162789986665 1.1140292423755576 -0.009035423170436856 2.1407890920520316 -0.9534395344206583 0.4412268238661043 -1.5522807081494825 0.3557993379440771 1.185391247862748 -0.39955002393178696 -2.708305810339523 -0.20131805411777126 2.4969636144444878 1.4878099453350506 0.5701351202507869 0.898179453856703 0.7272423830591538 -0.46008447393576224 1.9893146323895374 1.1889474342643556 0.6629716389215189 0.12840468523494006 -0.789675779529205 0.5727834735112786 0.9010306796953962 -2.120953085626996 -0.08678866346035159 0.6219930935987067 2.88523841658302 -0.9128273937793145 0.3683372676335447 1.8553841146857906 -0.3617653520272602 -1.9274450712951015 -0.6537933355014048 -0.8171243020997956 -0.6473890837067439 0.8398835998366371 0.36446778820108133 0.7432808596368445 2.7789513397232324 1.2406498506331993 -1.844465388515602 -0.3076111152681321 0.4953278069638221 1.893397635070217 0.22191768023447175 -0.21673680086653313 -0.39211681345058713 0.7558678439721853 -2.710799540251482 -1.7116169000617898 -1.303696124995557 2.265103195649472 1.0740507850571803 -0.3776811156073045 0.4309261194310852 -1.438217510754215 1.3438840825674467 0.5004466010052473 0.12046111116105086 -0.7386168379573168 -0.4768473808798072 -1.3667664842993792 -1.507445893287359 -1.9724640410501106 0.49166930418583593 0.9193840938604849 -0.10180309580452632 -0.1435407371138257 -0.4589859292529953 -0.6945076732747864 1.032524159242271 -2.019416024951444 -1.717882025720648 1.6174061125428734 1.307927929107289 1.9532906699413848 0.4029481025680797 0.014779471475949027 -0.32266395587184693 1.1505776993256647 -0.1641719099582798 -1.4671884679501315 -0.29000193933997875 0.5797072883299654 0.4917498928682771 0.09677936191662015 -0.6431293273801387 1.7026039231071124 -0.2320649294179366 -0.922732940709304 -0.3664752756314527 -1.5162229052984033 0.15500829353950915 -0.9627909207454068 1.0056239011088342 1.8101466946046902 -0.75794027407998 0.5253042808431239 -1.1238262684657843 0.3344148781500213 -0.6301652890297166 -0.4439555034773242 -1.5891248103551532 1.7590690676898069 0.3082918278406474 0.8301665823348586 -0.6285790268405729 1.7256467701239953 0.007241616456218689 1.1265431741639633 -0.44108429899909946 -0.8766507857983675 0.133051337990177 -1.5231701579482757 -0.4697466187330025 -0.278282111761521 -1.111704991261894
user_1:22.956835342951 -0.05486332261996518 5.598824209516718 -1.380384198387219 12.167491468510006 9.461369546114279 -5.775131569102242 3.2200206036690666 8.73988620872701 2.3709996450148565 -0.4845968927749087 -1.0279872788635116 -1.9505174869321773 -4.064367890861992 3.3800596358298898 0.47108032001225414 5.764888075144113 0.844360618737125 2.472682977624214 6.407509146554659 -2.4158875417239614 1.8964020608136298 -2.2993960832942455 -0.8548540291975204 -3.5224631731657765 6.0386618511244725 0.12362763011019628 2.146991013813686 -0.44442322887988717 -3.8837626145767303 -0.07743505431957892 1.5534778553243713 -2.564181029230838 0.7962057772996827 2.8548159900742838 3.6122591679531926 -0.18148707009803067 3.305242205225453 1.1462158114514598 -0.45436564830051895 0.8057203011944685 -0.6300074236386604 0.6207419337525979 -1.689922658721686 0.7871824843382146 -2.921466453149328 1.2204263622181115 0.6718223498326263 4.113206351983898 1.4352646852911148 0.21997998223805476 3.7534757421401292 -1.769476025618604 0.029909432783203543 -2.2297587427208194 -1.596006014948407 1.1801025194838193 0.23220734460336465 0.010107583393401814 -1.8548985531084066 -0.6929181480928439 -0.45587346186026567 1.5891584470946347 4.176459857614631 -3.014202517761895 -1.2541144402468232 -0.4985891244218613 1.5158435834075776 0.5352394351350322 -0.9472229030743122 0.5065968781206355 2.546590841398285 1.2834211777518205 -2.0944512554774515 -2.4068711907049583 3.455749406674352 0.11037976538622729 -0.4515417599373397 1.614892396565273 -2.4426616889349404 0.6288573741256828 0.7824318218030522 -1.601678975183529 0.7498141407229119 0.06342690858832534 -0.675634518889346 3.0279727800739704 -3.3351760625788702 -0.7050397167291373 1.565302714559193 -1.662087672081615 -1.9186844961576848 -1.198722336626191 0.7622367468329653 0.5217529479924522 1.730214851670811 2.6184878531564046 1.5674599275958934 -0.6471016081833287 -0.578317344311316 -1.245853863825326 0.7701314893919531 0.8239243485003468 1.5254765551388276 -1.4354288250443568 0.8392858998694602 -0.6252407383246914 1.7797114730189214 0.7875474132474445 1.5070439916768312 -2.3494358509056683 1.1673417672573658 1.7605061331399583 -0.3888382126375461 2.547654560638377 1.8699538777380464 -2.106154459194362 0.431991518827916 2.3515456252371116 -0.04252846028095499 -2.1118286294313195 -1.3605575694883187 0.6755870089381482 -1.400067958580769 -1.4798292058834563 -0.8959057051802976 -2.5490216982824045 2.2881633508900054
user_2:48.48864573018564 41.45978251344563 -3.136398688022271 -9.378703968653292 -6.918771856215858 -1.9353550017184356 11.778954090636766 2.68832049110674 5.74622994159123 7.124260965134638 -3.1712569884624036 -9.41934001434881 -0.9540802262706191 10.754136807149402 -6.435372125819132 5.894501229797587 -1.0507425450259709 8.625480503762319 -7.08817693223728 5.82503577054643 6.624399274461048 2.8761310120682135 -5.866453791777716 4.462697629477144 1.4843037612524506 -7.803344348908278 -3.0540325270047584 0.5483459303633981 2.235627141665971 3.627915564276688 3.180882411595748 0.6822089733219626 -3.1204946687164052 1.5094836402060092 3.0532989171105647 -0.505070156797 -1.687985491515177 1.0848140813060558 -1.7464329464922124 -3.574313613962497 2.1190599921519246 1.3432315219164705 -2.805342062154964 0.10071324798864634 -5.461851035427046 3.4358898665536266 -0.39480778047672505 3.283757603776353 -3.9412132926727366 4.515525916198647 -2.3712676629612917 -2.2676590523605413 0.7458452723695785 0.016198782483139378 -2.1754322568580666 4.223898075958071 -2.9533088986512555 1.3051777940145946 3.779210294854909 1.715570566915962 0.9555019049906077 -0.180633321395395 1.6656842335603288 -1.5859871549036337 -3.8582018294412794 -0.6557547423968706 -1.2609714141004165 -5.1702030337464695 -0.31751360449849064 -1.1209240978576323 0.05861192287705508 -0.9132368188371816 3.2722372016233523 -2.8270418469068757 0.7893674973343209 -0.4969855406297435 -2.005581465688937 0.7537440156142208 0.07264713180329538 0.31651301893525363 0.6415007509853242 1.8241825586376523 -0.9682515873717834 2.699620765046901 1.676399185377903 0.6123403823042003 -1.7046196663062443 -2.2452676407795416 -1.5585055804611507 -1.843882606797819 0.7884487680753747 2.7259743060213917 -3.251160637295771 1.8875367983507827 -4.280609997543407 -2.279441731864303 1.9268536092869673 -0.5118569501565245 0.6266256203772864 -3.587247378206577 -0.39877454926125583 0.13663544545044828 0.6254680544342093 1.1212020238668865 -0.4972547820317437 -3.4067432268557165 -1.4190051779680108 -2.276761251730614 -1.3181568151244134 2.3955963131305618 -2.641792579258997 -1.342470587406373 -2.2137231587727912 1.5315216461045453 -1.1244828533668394 -2.1988709793323316 -3.797905088542947 -0.2973594266637871 2.9610383248288894 -1.6179674320291495 -2.117060895642398 -1.436892095104418 -0.019303339574878516 2.2165301638527524 -0.7314206845668283 4.72978918976383 0.4222036965058923 -0.05739288179333333
user_3:21.18795367099768 18.5291167357059 0.022503205854793394 0.8245549781458167 1.2450291171138628 11.061215075324355 9.573358472999756 -1.2574507003139044 -3.759838482997345 0.11608806521359821 0.4028806411238869 -4.3066897320026145 -7.856547726002919 -5.977272952090601 -0.03231664514716265 -2.534262492850253 -0.009898371775380194 3.142244573192133 -3.8271559740115473 2.2486706378956813 -2.8343901813490104 0.27929908363073463 3.1984761703910216 -0.905576443193303 -2.3144944914920536 -6.7501047092539945 3.869223836222534 2.1986788264853936 -3.4768691906549525 -1.2749289992467385 -2.7427641657356356 -1.6568681511024685 -0.02495618045931494 -0.8265722349743702 -1.7800752420937007 2.126386945893679 1.0248350633220622 -4.748042227920316 0.5511062496177054 -1.4737851844386483 2.1567000886416534 -1.0642823411512154 2.2226049980798677 -2.435463115080999 -0.21140809749543754 -0.11023752201004833 2.18635874443648 -4.002321056177546 0.34574757635067377 1.2625136940326924 -0.8004874615913957 -0.22325650231391667 -3.5684877115076175 -0.039197131199412406 1.8379981737309672 -0.17794203940189893 0.2278541110337189 1.5879342414535047 0.867443916777692 1.8486306709390892 -1.6504755746173976 -0.19853567706468125 1.5581049778516252 2.5482876833418513 0.8498362404847721 0.13856750368624665 0.9105675321065124 1.2609049517629802 0.59921589559871 -2.408406118099685 -2.934377946951682 -2.028022341534258 -0.6036903823759106 -2.5003088751741425 -2.2393779719476306 -2.7014640354151918 -0.46179739640849643 -2.7251125630774333 -0.9842581584526751 -1.2227421612927325 0.49501260811658404 0.09158909196047685 -0.16244430119467584 -0.8250325366121403 1.9320803567641427 -1.0259392138912893 1.0374393553436652 -0.882584859276478 1.9600213436053857 -2.393212997616226 0.39045639879281036 -1.2139733151686376 -2.759525051029671 1.5348879528086052 -0.29018769192422617 -1.1024445511172596 -1.1658904915509527 0.8490987758278268 2.9578064175733196 -1.6973740416341907 0.8894928478531141 0.15708186781758332 0.9925808885437777 1.9137972921803075 0.418426134284839 2.510933718130655 1.3089957032962398 1.2044242355653505 1.3223161972088942 0.9336055852930376 -0.07557483290031479 -1.1339482526963234 -0.9756090528768044 -0.8420304168944805 0.7524706883601563 -0.32006803225295094 0.5806961400612592 -1.5476925732211573 -1.3454021403186744 -0.7539132833070201 0.6571537816194519 -0.510458587353515 -0.5728979294864056 -1.5532189934397105 0.32682052631497815 0.5354966887551451 0.05337745974803855 -1.3834893375842883
user_4:12.50415662201348 -8.174301049952236 11.227244014916426 1.3987264617663098 -3.678863986994858 1.024394331292672 -0.2827434590613402 -1.3847290312397726 -5.157379007132854 3.437801028611192 -6.0711183092767715 2.525408804421792 -2.8190752836524537 -0.034462525690969054 2.1322827182793187 1.0380416694628352 3.2662931333805587 -2.614607460189532 -0.874408350326135 0.8661371701459052 0.4719017087122401 0.9980188637034424 0.9118895497315793 2.188289596416694 0.8202825474685437 2.360397177672928 -2.112138054052001 2.430439259998733 -0.36843332400840095 2.9264905174975677 -3.0625636375578025 4.796958643103989 -0.10646451764799478 -1.5596702177018598 -1.5377072426611478 1.1668592849241204 -1.0921205948843038 0.3360997749192443 -1.4402097102303686 -1.8643532081249496 -2.3408666399215026 1.5018961042007264 0.23357933084850988 1.0393694424437647 -0.6985977640341999 1.988176563978459 -1.9070055658562959 -0.865325224952268 2.2692383772875657 -0.47681710914009773 0.5279087455647898 -1.3588951025170004 0.35601643492944113 1.8338359894665157 2.627603665857306 0.7041001774899792 -0.021173669858338913 -0.33649361510536135 1.4156263363387505 0.8043796241446133 0.3842673545324275 -1.879457772970936 1.0274075307241335 -2.098467952014961 -3.2047178712258324 1.1394216797849461 0.1420688061135369 -1.1706140619011227 0.1732901858541797 -0.12604270418752245 1.835129759671808 -2.099446520681822 -2.263072814997129 -0.8547321991953505 1.3742784734780997 -0.06073874456219008 0.3059983891393892 -0.023440019713348553 2.123222942617231 -0.5997270270545558 -0.35500093697734736 -1.135000753885137 -1.8832186973000598 0.05522853661340643 -0.5718479770236553 1.50130654127589 2.0048999099254106 -1.282491834020492 0.23692215559298702 -0.07339116960443665 -3.2006446120177388 -1.9464817366527059 0.6308956115833279 -2.1104343522409637 -0.22245916284916623 0.2662331072894201 2.4011796416082367 -0.3123081990949306 0.34680549462762217 -1.412038698994601 0.7829284919056376 1.10808830170347 0.9995083246729816 0.9437698465208415 -0.10819312143432111 1.6282662206631335 1.1048063901619947 1.5509167663297245 -0.8998205493322275 0.7143677953333831 -1.2669250269706966 2.4091141394893376 0.6938352656477738 -2.2710820012702904 1.0834457647289681 0.036416666408659926 -1.8508677022727402 -2.165954451694084 0.19557459709666902 -1.5779233315897356 1.088161910367905 -0.4410925648596035 0.5833944016225819 0.6146375617155195 1.0452389053352973 -0.4920258563406775 1.0412331144313682 -0.9332295371424536
user_5:6.31248978089961 -1.8851127288869605 0.3324163423114857 6.288462879706792 0.782466307733005 3.0726917396490716 0.09629806612298847 3.3669720084338084 -0.9242664934273279 -0.10194464132500726 -1.3259701203416903 1.5539371874845023 1.6573284578135667 3.318090290420566 2.2775768360544504 3.5906169210665766 1.8079869300188873 2.3247698866846576 0.3203747726065211 0.6362228387070992 0.40839874970794465 0.4740081528421436 -1.9714232859014793 -1.9511746601525441 1.571998448764723 0.2512564504798497 1.738819680698905 1.3781893722395764 1.972679474113217 -0.7638849307742581 1.999893897290124 2.126436937498752 1.6432782572739868 -0.48362488914992374 0.3223004949095853 0.004739715387140048 -0.3786659677100048 0.7502980720562237 0.19297042414693966 -0.37883249284532944 0.9127076664045723 -0.692644670699567 1.8974101792983777 1.6301679029669724 -0.5142460076328392 2.8009209566626727 0.5845162979825853 -1.9294097942270618 -1.7652915134394278 0.7325669812884896 -1.58264160850272 0.7521936113899096 0.44836969015126105 -0.5850400933204516 0.927532288583195 2.2996450669048123 -0.2650403736748816 -0.19643801427164712 -1.166712907813217 0.8183154979001352 0.020588162876448005 1.4212460449952549 -2.8580939836316706 0.8090403726847228 0.5351311586541219 -1.099891399582638 0.48996508349248613 -1.0718396480860282 0.4189263521559966 0.6580590610216895 -0.29910371336869823 -0.1870543660404046 -0.9178703938080099 -1.1353593808816207 0.6743774966143276 1.9688781171176841 0.5539323227611483 0.8264143056739737 -0.18647725447145014 1.1532711264599738 0.6960931907253595 -0.4076020909962451 -0.19394607938777864 -0.6569682778814596 0.6553775861950649 -0.6454139540452402 -0.5399775886841244 -0.2515271955666315 0.3542387868638894 -1.249002513181689 -0.8383911254180967 1.2971453081048987 -1.7860445293321785 -0.5793524004718935 -1.4935275523153524 1.3208313574187813 -1.7972944196925014 1.0245121161605708 1.4988847375190018 0.44288465165042024 -0.0691909478126439 -0.5716160462154776 0.5215307057311107 -2.2718672152186516 -0.26497730051621754 -2.207432968455297 -0.11485181908383352 -0.7199356587248134 -0.984669336514969 -1.5208044371584781 -0.4248279034902778 -0.5946897828356285 0.11764542169489055 0.7611301764420028 0.33714014539453774 0.6563580591140042 0.5579802452692509 1.0440123675493427 -1.3042222086509279 -0.2503668294077145 1.0718832562434315 -0.7129602088673478 0.6849672941569065 0.4867890584318118 0.48619842069949076 -0.35723684241992437 -0.3450429208839754 0.47239320643640464
user_6:3.494819644199405 -2.912895236640401 5.3813784244631675 1.5098483790850603 -3.8073478945854964 0.053797602095637 -0.5618086699693705 -1.4997008844650663 1.1940889793378204 -0.6581817331950268 1.5612867248203701 -1.7474786521311558 0.17230554345403204 1.3538178196708444 0.5549739808974277 1.6031684362845535 -0.01417096340263424 0.30569551992904237 0.9939887579471313 1.4151805829970434 0.24145985208538778 1.1953556023323417 -1.0830363892114965 1.4843814364156862 1.745613062575607 0.20170446725541077 3.412215782491551 1.443956084887441 0.028761609957418 1.252685712305797 -0.7501651636256952 0.1859793496372768 0.08439660086052436 0.8659924333785901 -1.8356092112993188 0.8147214573614963 0.8119529579718645 1.4101933264842992 -0.06168462722541704 -0.12451107588764085 0.19753436404506808 1.4484800012573151 -0.63815379320598 1.951375563327899 -0.1764435302395193 -2.3546655463660056 0.7845545898245401 -2.1661047782582656 -0.6532473682295602 0.4768904357457686 0.644734154751766 1.9556024857720566 -0.3912629292665193 2.3460814974780138 3.2828332006585557 0.4418713579891358 0.19510732627702493 0.13192120388439188 -0.47573993877285914 -1.2872945583357895 -0.9332281638153372 -1.0339539536987454 -0.3706863675324885 1.2759109096418793 -0.41913730619000655 0.3853361206664807 0.20723424873826168 1.3694121605446918 -2.9911388511028485 0.32564779668046384 1.2729153053356657 -0.22214430030688231 -0.23529134317557182 0.04769615187027665 -0.06492374271064527 -0.8152559336934996 -0.13931686543658428 -0.7482979351011521 0.04025868331317006 -0.02270313361586429 -2.2187431057341676 1.254419237465685 -0.539422500687036 -0.4478238144602298 0.47981157153389953 -0.42317158825521095 -0.10227325113036503 -0.5404821457308103 0.3523435678856878 0.6625864546316145 0.591544285348052 0.7781311331200919 0.12110168821820574 0.37989618558337046 -1.3037479056933199 -0.460613412609437 0.9842256719804808 -1.778720115953873 -1.0224040136976404 0.08415360276168249 0.7602752665575867 -0.05514714579720113 -0.6522973970958278 -1.1151940198501253 0.31862756616159016 0.15505904719096292 0.15931398392068155 0.4277943479752423 -0.024255825578224255 -0.4780094129172344 0.757227641541173 -0.11759575020150626 -1.107455294526625 0.9498625919684937 0.3258418754724768 0.4985566062154766 1.6075954028462753 0.21614550366236895 -0.4051280113144099 0.3171327097347392 0.842789127820521 0.09134378050698323 0.3213227521284828 0.09111051490287694 -0.2651703013208575 0.46097490201023805 -0.2161297425598977 -0.798119251408963
user_7:19.261056059543176 -11.560592483946786 12.35895938696278 1.5763494504084548 -1.443903016293732 -1.6108786636231516 6.167064206796839 1.9955000472180693 -3.3322094656594046 1.7239574058100062 -6.816310295946467 1.0052703705552288 1.1036132349611487 0.807954854082485 3.671639462310818 -3.4535239651740484 -0.7895079991786612 -0.915061111634145 1.610313223304068 -1.7103151110547432 -0.4298820490267301 -5.359082475760842 3.0410035821412227 0.2909661534130744 -0.6536180622809886 3.040969615319239 -3.013249431457052 5.757528911844981 -0.71381321768569 0.5898124953100494 -3.7776939781741468 -1.8273515196999792 -3.195832872180494 -2.320554622311437 0.305820393757688 0.042426731151892265 1.6666331026587617 0.23202370409828385 0.6099219299957676 -3.1543019827685086 -0.8137573761683354 1.6112051382275612 0.215422452089839 0.03497283078677631 1.0479853184582582 1.8181645668659456 -0.43983159061410354 -0.29670458149466816 0.10434715239787243 -0.8349020220171967 1.7455955891946788 -1.1539371587375145 4.067398274225515 -0.8398224630774342 -0.4333156603403252 -0.06361486206054694 -0.843557681415853 4.625725531898118 0.16299815587958552 1.8472140826454246 0.9283326627126278 -0.9001250570492355 1.29831243941233 1.6060647594379869 -0.6531680139150234 2.002834026605974 -2.124579168298333 -0.17261474478668704 -0.19252041507406556 -0.4274546237199323 0.4234398897881646 1.443551980111029 -0.38963133354657653 -0.40826229168901057 1.8232589008769993 -1.109711364844229 1.2403173344653498 3.406102034306367 -0.4980014506322709 0.036885151979547996 -0.3907657557340423 -1.2772916680667679 -2.1849400410012882 -0.5214617788412217 -1.853754992938204 0.7116882954082125 -0.1525076341773965 0.7491717336372212 -0.31791401776433215 -0.048372441942364536 -3.1472675310673477 1.8233256178947173 -1.2076535912521988 -0.059781454146860424 -0.2087784131608199 0.3334474000774013 -1.8449757071314112 1.725213691271735 2.272499387074916 -2.756571149358845 0.5875803428663987 3.0081468188620146 -0.01392967841003017 1.2239884140190587 0.0373457801293354 0.2541574132827636 0.6511489545305615 -1.123930896994363 -1.964769145235281 -2.1010460582859376 2.0334077765068748 -0.47144366817723926 -1.4540170033245687 -0.6225974219047771 1.0932113725854642 -0.5048504915499846 0.16696461549401748 -0.9234426646341498 -2.4247498529939513 0.0487020572877547 1.4423253793105821 1.1621277255121774 -2.6314365743334003 -0.31631186953865603 0.02808817531028117 -1.9735838302041673 -1.602637495271035 -0.1708991912895572
user_8:17.460088159373623 -14.034480395670926 8.146747719651689 -1.4458455552078933 -2.498561953268467 9.225713769059237 6.2753349233142774 -3.341123372023266 1.4157858006085062 -5.692475008579165 -5.08297955385494 7.71270071745337 4.176786247689308 -3.272423677502506 -6.793413878532576 2.8201603523852365 6.099252847827473 0.17800671033410967 -5.745430434699878 -2.7020179334385 -4.593179295740007 -2.9353000349551186 -2.7339245361971054 1.3268841794691897 -1.6080214632927554 -1.926230370846724 -5.80873993666873 -0.34408686906224417 0.6320354768040881 1.8418852664839973 -1.382321248045813 -2.4665021003766223 3.729064356659397 -2.830147437292405 1.7302245941939955 5.1462951389300216 1.3168351048696183 3.0949315394653114 3.377026165955796 1.6889245682145777 0.8353280127151148 3.9871437276078527 1.8144936173971296 -0.2942900978481624 -0.9853994559997201 2.133419926500974 -0.9481062747300683 2.913454516360232 -2.5748102143866998 2.035397146718505 -4.534548233848338 -2.2189772845322753 5.32344399343794 -3.7274855239879146 5.760718307615437 -0.3416527175007855 -0.017547302423499025 -2.316728403778679 -2.205684812076276 1.8209092836882286 -2.892018619456507 -2.6900334990133015 0.7289137506007171 -1.7367835349983662 -1.1785171523100122 -0.49671345933246325 1.9511469202859881 -1.8641548292082901 -0.47658297203759137 3.4937367323154884 2.5924515540925888 -0.889635864511209 0.0019988083675662738 -1.026372530955514 -2.3067683285333334 -0.15768201264125303 -0.8897853566845989 0.6306147345780848 2.807784509033007 1.0800408539784445 1.6644713439675745 -0.011614091139048821 1.8424365554701438 1.1144708669248686 -0.25267601944946905 -2.653067043667153 2.748830733562909 4.0731451071144145 -0.6805150317328889 -3.284683728459611 1.6096716759146283 1.8275959998729383 -1.9091152487921186 -3.2388718549111655 1.3804221870320537 -2.8706978001363574 -2.3221327673631444 1.0484712314842237 -1.7230824194711132 0.059518121667301194 1.768417908112031 -3.5488228565465887 -1.954681430679984 -0.6167719399058841 0.045101743047549686 0.24657985032034008 1.9962540719892898 1.6880930939373844 2.6692473115910063 -0.5602661705895416 2.28003837550538 1.9774894350011174 0.10669189041584301 0.4103612902277358 -0.5126526164653823 -0.08308141629345193 1.2832908578534317 1.0393147752613379 -1.0397851155105082 0.733284491247201 0.22544712886525559 0.9471347369448581 3.000882676943388 -1.4047451155129436 0.27295048266824207 1.6593318873043346 0.5799888606098006 0.009790223458803052
user_9:8.032645666591392 -2.6963388227616543 6.211740489078686 3.9255134361656885 0.020105517008274232 0.8510893619917492 2.003693883262873 0.185761266531157 -0.1421356249673939 0.14798612678298595 0.35478417976866977 -0.1541590355247011 -0.17424914231310418 0.8041154882039211 4.972109090409106 4.908824492508797 2.0420019112168593 -0.33865799298318405 0.8638184204204017 0.7111217535656982 2.8326420422418424 0.5320655459219225 -0.8138758277138892 2.4180723652349405 1.3888703329048668 -0.9949575304696967 1.537057391118935 2.8679544230371823 -1.4947529313068055 2.746571905593017 -0.9535561008387303 1.9716250776520152 -1.2186491173384975 -1.4124951292400636 0.6888075309393155 -0.27532131203244065 -1.205452397114679 0.5726003817728726 -2.9541172842856422 -1.4785816636789053 -1.1392826906646212 -0.30231409191697556 -1.868393500766189 -1.3075770930253514 1.4429310005143663 2.6059207142515457 -0.29744325129923715 1.1691470790417169 1.0559707628888526 1.1581895218141067 1.0266898129460857 -0.6879677384843239 1.111987321095052 0.8345092025400954 -0.5738068090389755 -1.164695007002845 -0.8034168699813787 -1.6161779931982136 0.4740831553881053 -1.2583515637138996 2.1513040815232296 1.6204376703852748 1.7953430908218797 1.8422992194276264 -1.1263938990450355 2.831582384539144 -1.159866973051084 -1.4636076163161318 0.2597442884084731 1.3626979113303865 -1.7751094147252395 0.5485261436992908 -0.39590382697953647 0.7302562879207815 0.3062663975382058 0.6684619193943467 -0.5913038757720751 0.8388539576613022 -0.5920434844258416 -0.5316636957325838 -0.9014083554679589 -1.017397709679099 0.6782395166456702 0.20225020080729306 -0.5865411586868791 1.4178159008383555 1.7812054033324958 1.957827700905049 -0.3154243551744381 -0.5601066826631949 -0.13526021517694073 0.7844361174964712 1.4987746898521457 -1.0222222673877763 -1.048820150211869 -0.07303608222146442 -0.2602178873620033 0.417003681727109 0.425036640068867 0.7471549793226411 -0.06993934161215881 0.18408168557503246 1.146277177303938 -0.6133259786799788 0.11291117300158784 -1.3643960910335098 1.6224147285203416 1.1642529759194624 -0.041622534817725085 -0.31688350609840404 -0.03414803248354235 0.4816331625750573 -0.9267022906797746 1.332355549764595 -0.05481825000872839 0.7765034663276873 -0.5488972822620428 -0.3603892592723643 -0.9528896210384004 0.14754275707625292 0.16560539626054238 -0.9382652668173483 0.5283404962111969 -0.7032241388690285 0.8091259777805059 1.385973608827197 0.4027082495406372 -1.0320622993892294
user_10:2.364867199639033 0.4689294151207596 0.6644426772880203 1.5651109695000252 0.05340460800603851 0.06536850393971845 -1.2927826096926236 0.2098453654205208 0.40012339471644326 0.47633405609520507 1.5593947625858977 1.3384206241439003 0.10108251869537382 1.3810122101442943 0.6032416839581162 1.2096674246560053 1.3663230735929546 0.4269392406240022 -0.4637874109910737 0.031744195118017 0.012683707228508142 0.7338125471960923 0.10796229791829064 -1.8663270760460897 0.30909888958318255 0.632015307097673 0.840364621911607 -1.2207822714349639 -0.14132455969458582 -0.8664114962285965 -0.28274761833494594 -0.8365514510075651 0.036530086929032105 -1.0983450573283333 0.03800108640198663 -1.3280568567477629 2.1017772021605188 0.26048936343853774 -0.33990993335991093 -0.5760717516073189 -0.90586462209682 1.588496347313499 -0.49603454248528456 0.6372066190932296 -0.628652398300678 -0.12163176500029355 1.4507001903628998 -0.3632314474963057 -0.5797250926234468 1.1665816346422533 -1.304913487088419 1.4393731555335567 0.29545617444507893 1.9216742389160821 1.0031209968712373 1.0552776753516853 -0.40829656614082366 -0.4678222240717629 -0.7560512472483909 0.632573325498162 -1.17152595958127 -1.621950375340074 -1.205400038575822 0.6929866877264564 0.3406661313707382 0.48427943204383667 -0.4613906688480377 -0.8357122727534401 -0.08921471912488525 -0.22684045290247332 -0.30755737406696965 0.1581605315565202 -0.8838477192962616 -0.47810404652594446 0.7253319964025595 -0.34093610672881475 -0.23941738365864607 0.03982571989209909 -0.21988129862308436 0.19947000304903378 -0.2642326956173546 -0.45899015177183805 0.44535420329526193 0.32564840173903387 0.20407974280940075 -0.8514460760083281 -0.41197892743724684 0.4267933357336534 -0.1926271995270714 0.7111554160854827 -0.8910870779140005 0.13335113285133474 -0.45665126386362326 -0.33172324901975114 -0.5134213548852383 -0.06787658644722629 0.8862335464027854 0.0050766395480249735 0.18335189907131205 -0.1185853984627227 -0.39227460183471463 -0.2096322867721455 0.3883027923137419 -0.5467618773365143 0.1230583567345302 -0.8637037095054323 -0.07130377175936625 -0.5183791220842878 -0.1971520795436013 0.16704717218788454 -0.44006537732644757 -0.17859485550627224 -0.7007991537928527 0.2024347728020336 -0.42694209215973916 0.22276368388413192 -0.1877673919077871 -0.7199780431713669 -0.16688200660527147 0.3302156055140833 0.5394656011415174 -0.49989445102154195 0.4557206543778193 -0.1880591998376062 0.45115552532555825 0.49087940803767516 0.10134323326122202 0.5072584151458502
user_11:50.05126532955194 -16.20747569237244 -8.357743074670054 -2.42341294896758 -2.8976426042412773 -0.4185572550895968 -15.22904991195837 -5.75025266130975 -11.972152978304994 1.0935946788135074 -2.391566141454124 -1.5281544329884047 -6.107505689064752 -6.14869985526012 -3.453092823997892 2.8756127890489007 1.4895299143289575 1.4221550301929469 2.577622523023736 -4.215098054491048 -2.082183877413443 -0.9883530405568783 0.6627179936252405 0.24806609597801058 4.317942653145747 2.548847324719955 4.730776390216379 -0.6031923544941097 6.569592663631493 1.9652730623986254 3.3529945063825215 0.3625401289510374 5.451632065737706 -1.9866348908205191 2.5319949599297025 0.7136623001296291 2.8854503289368836 -1.591049090773772 4.802723139423457 -8.028350718128076 1.675315345124857 -1.0802984121614683 -2.5265676275928604 4.992248188579752 1.8500662005352846 1.7836351533155421 -0.06578470298463285 2.6324880435850933 -4.075872369316524 1.3154329214306535 6.796565832537069 0.11459556091597288 1.5943624916698602 -0.9158322634355135 -5.6580010669161505 4.094386989032574 -3.6407131782402424 -2.9712593200333965 0.8113691871658776 1.9116042887995373 1.0350766978187547 -0.4691558855739546 5.892259048348461 -0.604650882130961 5.062065143791882 0.9942631097444942 -0.40391306970443736 0.9049502036941897 1.1645492190769644 1.6243454096248238 0.062198379468223396 -8.533574859916989 -0.5349508716826835 -0.7657336845039907 -0.4872530327459754 0.2414472794166347 -1.9465613719330983 0.07701260977843705 2.4370323731131696 1.2801001088680368 -1.3525650850468578 4.289687175942621 0.034557091134284276 -0.3793670312350558 -2.7045777663301918 2.421025265230635 4.6021820387302155 1.8089979867108401 -0.23818599079787403 0.46986705490721226 -4.2746074150727615 -2.6947381648924087 3.502384040807101 0.0662411111184687 -3.624226585587448 2.792768498662816 -0.025975726108020528 2.1004332055551367 -0.9437185296254585 -3.4935394481055164 0.26955257653900105 1.605855144360671 0.0017637812384922063 0.14831980331919156 1.8948740547844871 1.1256918439090138 -1.8422947886389192 -1.5644590216136953 -4.13274930491636 -1.9819056259020402 -4.047771974821839 0.438563584040882 1.7400233433950547 0.07937851510599231 1.1989622634488786 -2.9442900520653827 -1.2754198962196748 -4.21976420030014 -3.6357395439663716 0.10375054188762885 2.3541715559526613 2.4304054252787592 1.8012131793088832 1.1682555562532275 -1.0211823665229196 -4.435147217874764 3.16482645947341 -1.4548370348830966
user_12:42.382380848206196 18.600902158435424 6.256055933206065 -1.4772009119417648 9.96207687157267 -3.1297548837836042 2.049709519624524 -10.078879631347297 3.1335546328907062 -0.1565930803582642 -4.94448382506041 -1.2786464409295581 -9.606669459259981 -1.7184343824437813 -2.8968293170932102 9.794125835103708 -7.01479087705438 -6.5425519778501435 3.6387290467281335 5.069323663585544 2.1003693529800223 0.7981338370490371 -0.1783614451762382 -2.5374707399949754 -0.26759922800460356 -0.9751098355733514 -2.8514490153107555 -1.0447305732464673 -7.41660964248762 -3.730151511276037 1.3421036996595037 4.024083743763462 -3.7720369449462816 -0.7838554881767348 1.9189079483200753 2.5541072110086955 0.22385137578335731 1.4374392421038429 2.2720086913414006 0.04947438339251241 -0.7399588682048797 -1.6984366330032554 -1.4497764201579644 1.0534434991758148 2.357505651754789 1.9354304627622645 -2.106250641234637 0.173506824052034 -1.145557501376266 0.10817159858526239 0.05081127187421092 1.2261064496609255 1.095982900715229 -2.368588860922803 3.589589633263187 3.5349145569785265 -1.0966450150284062 -1.336735071259933 2.520164924589549 2.1051556297744582 3.109708942097777 -1.0198398905497852 1.05985590894613 -2.619094580283263 -0.8949113426523821 -1.4654318572656628 3.470574333475305 2.257109283303243 -0.29513533393583447 -2.181202301558878 -1.2265665009438813 1.2973595657350425 -1.872287703934692 -0.08108903208773426 1.5006372142939892 3.053773857421423 1.926948859098435 -2.123657212959811 0.9494010951927766 2.5850497958916807 -3.361816232291585 1.4818118460869194 1.2498071921581044 -1.1475040835680477 -0.7212131448892873 1.1668786823936632 -2.658847340342643 -2.583353872254067 0.708825975253154 -2.692209682565872 -1.0232868818547065 -0.7905954369402602 -0.9975047265528343 1.895328564888895 -0.6284910083722913 0.5420541103638816 -1.485297668560557 0.2801817821266938 1.4572460788517825 -3.48572641363947 -1.7587025552689386 1.836822111301682 -0.47761970205035165 -2.3134184724123923 -1.4376294182715657 0.5220879095244647 -0.5176150100966928 1.1707511150217167 0.3360776771322456 1.586826612106911 2.0398978657336957 -3.774265053072388 -0.8063003863010395 1.5476609019825371 2.810939672096567 1.3056867633249278 -0.8041970516013242 -2.5106364035059863 1.9246788574266933 -3.294499275197878 -0.07705396834834986 -2.119410117642198 -0.75559307638463 0.4174880037344238 3.514964882941726 1.972641068379256 2.470054835569755 0.026682218250088867
user_13:6.7266574276911655 4.219164984822136 0.7724488610662078 6.475716265034118 -1.2700909260788797 -2.5979726140067276 -1.2559391076582787 0.3620239596179093 -3.166411462994462 0.6498722759422423 2.1551407297002 1.855069655315187 -0.09377845082095608 0.011544037593841747 -1.3107088727591327 -0.07184181758271416 -2.190615337171705 3.502634477258129 1.0789463167616882 -0.29232387955169403 1.2058075163617124 0.9100218130310269 3.143150379377027 1.3067042714518966 0.4045076078023998 -1.2291247851990184 0.7962685833760782 -0.6802076641046291 -1.9105243602367434 -0.8386540114738106 0.701317828090342 0.9035535344581583 1.5557509719729152 -1.6608572282115701 0.5702338073988509 -1.5340536237902138 0.7706236927612058 1.7939315826559536 0.6450222390600159 -1.3237780454718522 1.2543108598867379 -1.322807745145284 -1.3234352840464072 2.370917173650442 -1.6044766233752237 0.0160008621525497 2.7455407098006614 -1.2578792008677815 -2.916065249086335 -1.7041231567072055 -0.7010673370339536 -1.858619962875163 1.0553354591819664 1.4056176283387465 1.7009229949561615 -0.43823155675617725 3.225471809342994 -0.9192601589300275 3.5779881065572314 -0.42017253734060545 -2.1840772013341274 -3.28805305100512 1.929199557148758 -0.0971248931049048 0.3113153508975421 0.3505306440856688 -0.7355564066236591 0.6644679051421754 0.9526730775165954 2.291751364251912 0.25844446114010944 1.281176416450601 -1.1918582788249825 -0.02610924024244518 0.5415464628334149 0.7920326124690863 -0.34407772961040917 -0.8650090441009852 0.3807922817769142 3.256767761876356 1.2606234961661582 1.7699182513375904 0.3990254446113 0.1899581492392295 1.9139515080601988 0.24637963512088373 2.268393254828077 0.5325908494722783 -1.8788515210779748 -0.05555810590123793 -0.4837912895760952 0.6567374483592122 2.144888672699747 -1.0116282354898782 -0.9300883902349637 0.10400682962826652 -0.16480719348375894 0.5144553243715649 0.7747702332371926 1.1808793797494168 0.48870577945837823 1.3256300901470657 1.1794026971565128 -0.11140838600549545 -0.18810595913051179 -1.436882515711027 -0.5117051390412202 0.06053865528255787 -0.16430360128833565 0.572091698908773 1.3075470485412934 -1.357575015457272 -2.2716700284097127 -0.2480992734783319 0.6074582152985538 -1.1858718711761993 -0.8440115229360943 -0.20655873579771286 -0.6425340483469048 -1.8422681858251455 -1.3497527926412503 0.9043088012732532 0.8222313534720597 0.4462523158747579 1.730751211252337 1.1310337479068557 -0.009950070430024528 -0.11899539313820472
user_14:10.90748556597086 -4.249791322485338 1.1108704530791116 2.7883653108235493 4.173871060293963 0.012479528434478596 -0.4836140899556737 3.126560746219075 -4.126866498251505 -1.0347774555649711 -0.030881008991814285 -3.994809254287747 0.14906485687165055 -1.7277033913989557 1.3340663288658048 1.0534458744866075 -2.0092035224430873 0.3946430447032859 1.0869251127639992 -2.158634271223673 0.5018977659493783 1.606229062452889 2.103308296779507 -1.6674013513996107 0.624882938361824 1.3260807436602786 0.4850653845088522 0.07946710501975333 -2.446895915675264 1.3686056294843234 -0.20998713323164026 -1.474847863213188 -0.33680922120796986 -0.5420490774281359 0.2352909977952128 3.532605878841596 3.154829949650564 -0.8358086507004963 -0.7434006086564378 -0.296073868227808 2.704599818100548 -1.3445733494121102 1.8829317670506232 -2.5658268698903766 -1.9646829801319143 -0.9606535727551104 -0.5953320888077632 -2.9973197299688925 -0.2886096722404501 0.10228407775270376 1.7730620504921069 -2.5358345727075107 -0.17649375625775982 -0.7967943850503578 0.39470375269969615 0.36250648512671635 -0.18926609382754858 0.2661522212863294 2.6998144318622495 -0.10342246576175121 1.1748673652679629 1.4994804207903223 -1.721407667215806 1.134595835650087 0.8357567066143138 -3.773529303483159 -1.2243326313256921 0.06239684986204566 0.5130685619566056 0.1705164164926333 1.99741823289633 1.2210924287797695 2.2509031724257924 -1.4639966596970606 -0.6319604977623894 0.6020011579711936 2.8548796375199643 -1.0259588544721994 -2.268867597133063 -1.4389823898208078 -1.2856525422663478 -1.3729773723497183 -0.5949081056671436 -1.1150696086782819 0.06744284093171382 -0.545721289359723 2.2134194360627286 -0.7776005785673298 -0.13816658455546094 0.6886430314526868 -1.5892841626281535 -1.2401230529203542 -1.3383392494560602 -0.971911457056062 -0.48730374152736416 -0.1778708733204499 -1.0743601307926371 -0.5375589496338155 -0.21889571162543903 1.7397378921270137 1.0529715235210613 -0.7816659909861268 0.07394785689594185 0.45163743662735406 1.824220089715936 -0.3463684374695436 -1.7006475466957465 -0.161708319892707 1.1443199289183128 3.6645960164075624 -2.6079186830491325 1.907917417093513 0.05536849380311372 -1.7910999375117704 -2.0437276891697667 -0.1341852304204137 -0.41121664429628657 -0.38866655943269757 -0.014805665099465196 1.6471755992508743 -1.6889261852937854 0.39228953274025175 -1.4243678499589687 -3.292717779829015 -0.2877371890011766 -0.33580894038329123 1.3134123600618646 0.8136115322002215
user_15:5.322733947115179 1.7604297405678107 -0.2320138762932109 5.529855041851696 1.5307366084237053 0.02236809212469206 -1.8084884481356804 1.1611232816290735 0.21771001122068517 0.49140393901864615 2.2971768252333167 2.7187183228170566 2.3870623169830427 1.6634666903305229 0.6213282654790595 -0.5976961962317716 1.1015192858103136 2.81438849517599 1.9919713807389985 -0.17450357801278468 -0.13470749032445686 3.494732002306046 0.5529105255996123 -3.7918302136155373 1.9430835251691019 -0.5920016948364519 -1.3002491675636167 -0.33887482073790265 1.4874531893237106 -1.8151339341133053 0.5101239308377906 -0.6998514075395852 -0.2337720553757798 4.790723271529763 1.2431097657952364 -0.7540335103268931 -0.19293329060604816 -1.3190594026676234 2.30577045533804 1.4467508633053858 -0.4696794076064835 1.2951602348030318 2.4999759094942307 2.63834480894205 2.0204224447202224 0.8123938088892426 -2.8267812170351174 0.6388868543078974 -2.747551011861194 1.0882774684889507 -1.2661378743707215 -1.6576955049406603 1.230184664210836 1.4115707633278645 -1.9901378483621854 -2.325322866390691 -0.638968546977537 0.6119010871465812 -1.1716817200436094 1.4289305747611296 -1.2092614164219777 0.677165153739654 -2.4393213165689196 1.3983695545584998 -0.05130651979003758 -1.0452350146067293 -0.5906925912347211 0.6914605872021595 0.9244679557837006 0.5345878261539505 -1.291550484493642 -1.4522156845605532 -0.3219030666000109 -1.11155340417367 0.28512352271870306 0.780127145749407 1.2201792075825173 -2.1578727130144904 0.44911639951149207 0.5667135850494609 0.25891865426202576 -1.0175574271274312 0.6638250714043509 -0.03399028273483978 0.25932612332951666 2.6197773240895574 -1.2318350117448056 0.1807779773502846 0.1738736302459005 -1.097003389950631 -0.9352968907586476 -0.26850068123301885 0.9475596294574233 -0.598762281373365 2.4923788690889292 -0.8255943461185682 0.8195252621433536 -1.3333018798200111 -2.2046050823630816 -1.046847894432219 -0.3745404044484135 -1.9826944482896074 0.9487148929556798 -1.7015871476656552 -0.13535234663331683 0.42112598712554117 0.0025911034594054616 -0.3529220906866298 0.9069558843546959 0.0880567696220267 0.8452071241026963 -0.4728443416401936 0.4423852652137441 0.13384324702403735 -0.36495490249487894 1.0054924532444693 -1.3417410554155136 2.5347839486772483 -1.6117190808345068 -0.8169524983990292 -1.993435252422666 1.4210243958828632 -0.6589452969603427 0.047859698718228136 1.162587716772338 -1.1679271385102745 0.8232154246086663 -0.6620397351468988
user_16:2.048726769243658 3.881511329237522 0.7197187564421746 -1.4916276821590624 -1.6748127561918742 3.3318310484796867 0.9165775692317345 0.12540929733946804 -0.7778712418955602 0.4718872914190084 0.8721777365230444 -1.53461394482658 -1.2470191518380656 0.6283331634023929 -0.32503537262086857 -1.656040993133471 -0.3403243512607193 -0.1649680724924977 1.8607234048633945 -0.1258951547493333 0.6525058448042648 -1.0977227973520507 -0.0657119875654088 -0.7886968329950114 0.1106637805146437 -1.7371441890077324 -2.1997444313012604 0.5943946521421065 0.7134553424551285 1.673127816326144 0.12022533528568846 -0.871587029576699 1.4579846549723658 -0.2545512579069421 -1.8825028047304395 0.05176519386888944 -1.6099623918535468 0.24314320335596712 -0.038263858414482835 -1.4078949741810218 -0.12453303317537459 0.12301591791903813 -0.3199266526945672 -0.4091194073943044 -0.8954955240773603 -0.2937288760814589 0.5292881942952212 -0.07664284080961258 0.6122070594453894 0.5389059907988454 0.2593787547140833 -0.5371861175631303 0.5958058666643338 1.05917145582974 0.6670179547246547 0.06398861669519759 1.1143547441642232 0.33881747443938015 -0.26701998056384424 -0.25643928572751146 0.17812912217416063 0.4167673936653903 -0.989808274918515 0.3354245886189257 0.18659098532080176 -0.8790340459014382 -0.18827445187286906 0.2419141138931364 -0.3803785933497467 0.861105948609323 -0.4410389228595438 -0.16853281275036466 -0.7161279568822155 -0.1438601203919668 0.29706917058980653 0.05266453042384886 0.5860299898549999 0.761056568525256 0.06945244646178331 -0.06570248877666268 -0.5839470185255298 0.37321478273360403 1.0572197547889002 -0.15229996856133904 -0.20345423525783912 -0.07796019144319492 -0.026687472558178067 0.13889485881837743 0.3039711779307261 1.1116748845968787 0.2404267371411834 0.5395394544141935 1.4050584234647145 -0.6194630986757599 -0.559322751831122 0.9271973577068582 0.0018955621066384098 -0.6771214850614169 0.15374638484700642 -0.29000391971643963 0.4638157680964252 0.20447325504468963 -0.6646531564711173 -0.1810677649334133 -0.3008719845296273 -0.47503580559406855 -0.7048807253905568 -0.3813187145450743 0.3840169241098307 0.048021487615149384 -0.4989232276978628 -0.23578750574430773 -0.48984363355096716 0.11376968529031194 0.07857230990412516 -0.09360579851180292 0.14148962883827582 0.30713211749206215 0.45293866092460755 -0.6475490544067422 0.41483663065895426 0.3171257752914024 0.19928685716887398 -0.15334809695819107 0.4605983514950135 0.12518364711491223 -0.48256495091570545 0.15112456281223988
user_17:27.393303233463612 -7.432082100685132 9.904494811564376 2.279784372992157 11.599400188822385 2.7729162231870106 1.1200054241511306 -0.896373070350783 -0.004447417838113789 -1.5437598372690462 -4.074020505714709 -4.8862641020192905 1.203322775049551 -2.6800090994836676 1.4583022981426306 -2.0256282923401203 2.428574887414308 -3.9607955269692727 -3.079232983380826 -2.4437900430366915 -2.3779425149570965 1.4404607404888825 5.238764632038555 1.2516440593052458 1.0173142635159318 0.047338061435637506 1.0416940125042025 -4.643149895992246 -0.590091243288264 -1.6033059232128637 -1.3630089718548908 1.4866105249596688 -2.2418744125645302 1.990694795268231 -1.9732731180219214 -0.4368209367050061 2.3481199857605284 -1.6466019782931696 1.2967899832169916 -0.36200455645617163 0.6876252475420048 1.9864493431725503 2.763774494946217 -0.6869363073788112 -2.5444626614240273 -1.2761577705991995 -1.1160441897431215 -1.5377814706218447 2.3378813084625567 -1.3919452067064029 1.4568300859690604 1.594158338122529 0.7614017465170381 1.7058087645659081 0.32770151083522947 -0.40010941192316124 2.814600658483783 3.178192063161283 -2.718450221992124 2.0604399441875154 2.6206516578403103 1.313009724313288 -0.40865475168471266 -0.8381300279054369 -0.08759352839580273 -0.8559518692379441 -1.4364093926398407 -0.8312968618324749 -0.2252536635104463 1.7622734241917286 -0.8633447025487765 0.11208727395090351 2.0981613379027175 -2.214283470845779 0.5263252155060784 -0.28821211667488644 1.8178283795514445 -0.5515198068813352 0.9135500948634179 1.362062167703355 0.20326753094450806 2.5088309400109834 -1.2597304094962987 -0.5376905590849542 2.0671462973503814 0.30339451081233626 2.3582420399862603 1.3530005521761785 0.6818353254748725 1.8384025586097494 -1.220943554831053 1.312987915080673 -0.39077031270405865 0.9854696081048897 -2.139722673909636 2.2435021551752565 -0.5160351254946535 0.1262611065932574 1.1762992064951254 1.36817479899133 -2.276958210151298 -0.4361720907052694 0.5731817851518274 -0.11663756525203896 -2.705039937481433 3.157954102899894 -0.8342464907565618 -0.6697458737607472 -0.7884982745515535 0.4714319451049706 -1.1275934577804498 0.95420292764653 -3.075836679314339 2.3865093588443256 -0.9340347664918032 -0.788155090592382 -2.154664864952013 -1.7237278920700132 -0.1322830173217535 0.2516314486510979 -2.0684076636191815 -1.5970652774482885 -1.2832467594114307 -0.7618817215019216 0.08564514357380176 0.7593640708377012 0.9680745238192823 0.6330766458581085
user_18:27.877235508844564 17.42342923741628 -0.2547257773447012 1.8902945336287602 0.6866684722558618 4.613273763241801 2.6085770847136485 -13.271253818171571 0.8542379820711842 3.903530604968285 4.450700698717931 2.6645338582408407 6.04088421448477 -0.41464462703985877 -1.696302630348289 -3.3450271931632005 1.3757723196506713 0.8541814392667839 4.829977117696985 -0.41551761407421695 -2.7834796708892444 4.974329378179618 -4.006531155625536 -4.995984468599371 1.5743930753368742 -3.710037979652847 3.250318820347459 3.090580081553175 -4.80977210010546 2.092497881330018 -0.6035912177268513 3.0720287156747763 -4.229848131535761 4.954449997431396 4.472530645233187 -1.2419845647330277 1.4852590115348385 -3.1294859279070395 -0.1891767331281557 -1.0800760692370974 0.7241905493295523 7.493467277277412 4.327038014121462 2.8753778485767465 4.201004562580109 4.674918991324539 -2.2007555715869014 5.610981342103918 -1.6826786228530417 0.5378214226860519 0.027088711829292483 -3.4526511263576554 1.6834993116012542 -0.6989018063745481 -0.7526314424220211 -4.858665678254849 -0.8000035867031808 4.467406848322722 -0.6266854831300174 0.9995119544664591 0.4758058641495284 -0.9213399868339426 2.231600484069473 -1.3712157416289303 3.332726615692631 -0.28138745968984447 0.5473445699362925 0.029084738811173644 0.3379727066602057 0.5991391078189122 1.411781999459853 -0.8345370845304821 -2.402964246043279 -1.0976983561724143 2.311799983187281 3.512492620881108 0.9531639211097943 1.427854554346672 -1.2423670844962464 0.6791357071292806 -3.656070097259843 1.2137413916330384 0.5040994312370601 -0.3170991076910725 -4.10673695102203 -1.6257696881763481 0.854104977633597 -0.7384429766343616 2.1391674067458615 0.05591474913979641 0.611982393940381 0.3139048658154698 1.6989144808785241 -0.31687338301869744 -1.4342730380598427 0.3547902853957682 2.3261398675992417 0.769949833147394 0.10817074930301494 -0.047004473871888205 1.8992166620874853 -0.6631696024072605 0.7119808724186445 1.6554067800105268 1.1313624576763806 1.1793020992940046 -2.6684991055634812 0.03471398480429189 -1.508187642287984 3.561057138893143 -2.5772638202603293 -1.7309227747402727 -0.9489639367068046 1.2778737708859789 -0.8429617048468994 0.6252743562048234 1.3414017772169993 -0.7495686571854978 0.629399852491945 -0.8318388577552356 -0.8967898217848166 -0.8469454529343055 0.0017814462198885508 0.2160890571377463 -2.2494830095180722 4.665758009464159 0.09418547495868877 -1.4193474530062522
user_19:12.50777187589404 -0.9397653879182208 2.6071486968092734 3.7391998420880226 7.339596684096891 5.611117273708704 3.209212110673543 0.37269256655602595 4.4659947472726875 0.4263043380261681 0.45236806323335355 2.392396002885514 -0.06907708281015904 -0.0782386526831235 2.313872659712491 1.1558235920797748 5.157264407927732 -0.4357666063614012 -0.6937064278377559 -3.4159567720828536 0.2739067517506753 3.0974819397910434 -1.2965020267836178 -0.02680130688232095 -0.6713434667161212 -0.7611953010809982 1.4744061372278217 -2.172920984577651 -1.074653603307128 -2.520899866458882 0.2067128605149598 -0.5461984969698346 -2.2086309126664294 -2.037614668034449 1.6706758694902197 -2.4975315146666413 -0.9054626929001958 0.48508108017036256 0.7109492439083807 1.513822185420183 -0.8449631769799788 0.124561354086484 -1.3191202370501793 -2.3239300367754634 3.6359485659525754 3.579224666215287 -3.157965988582036 1.8122344838594293 0.38485737053775704 1.330472223732701 -1.1232394212859522 -0.6098962122993761 -0.5760903488313986 1.6429021517815636 0.7730971969209117 2.199615095148683 0.6940859936080476 0.06660295029315713 -3.016659219510023 -1.4415876939282746 -0.5495966964350625 -2.1251228875168824 0.7064129721221009 0.2596750105301576 1.2687775426543495 0.37836774342695334 1.8808147209455057 0.3502271855793958 0.5378665681024902 0.3072570300391473 -1.5801535585575808 -3.0523200447872845 0.5246025133057302 -2.04843136370559 0.6628495445935864 -4.30708949660241 0.3900285584889218 -0.8637222684344786 0.2229076536625395 0.41750459569587306 -0.31492280332706984 -1.028089758622283 2.529720042409567 1.367512632523801 -2.3946038514661985 0.06584402165054508 0.4683296255283798 -0.13165266479648177 -0.7885493967870036 -0.304713257476175 0.8601364277983744 0.5091802598541131 -1.244067519664623 0.5222943484127953 -0.4589652501931023 0.7444953093417712 1.3427888359163014 -0.5661113362357262 -0.44584152092713697 0.020912675657844257 -0.32538444767334007 0.09058472779140474 -2.165291633410645 -1.0380324436052104 -0.6409584248086534 0.9003838189426696 1.5420995290158497 -0.3804581036013882 -1.9029778475784613 0.1318267706267816 0.6134169727058748 -1.4215860308716555 0.32323698771184023 -0.09509075510050455 -0.4494379381930452 0.2946892074456812 -1.4859574090746361 0.026768831239953245 0.778108329942956 -2.1851375757834774 2.448976590490217 0.3230498027190695 -1.3275573999961987 -1.0466953918295325 -1.2446366800984665 2.4766327455175197 -0.4407003992302264 -3.3708598948571993
user_20:14.64069131760211 16.887295207822422 2.406136462657323 6.42754925855113 -1.2165542408046102 4.849122749425501 3.697804831539935 -0.35073801128808757 0.2793716040289556 6.1095076801763835 5.511836252586174 3.148172583228981 -4.520608484993645 -6.8957678452837605 -2.6058473358984786 0.39611620656227375 -1.4353357677014125 2.9750544602131646 -3.226510818859892 1.0414778480308386 -1.2380312757508316 -1.5472621411742833 -1.5666836623463163 -3.7372362360013014 0.5270944666909102 -1.6625170488215453 0.663646956088609 2.508820193871167 1.5385186748917457 1.9846051381453618 -0.7948747277346824 0.4389471540119661 -2.8436763907682803 0.17605042050978345 -0.013229613469939103 -2.007632482420856 1.2800755387670408 -2.736686538425161 -1.9303211572281143 1.4712377331875488 -1.4329906306845384 0.9715962460275442 1.0891826618755194 3.5778398855723417 2.158753074784115 3.4306290899207506 2.494808920438115 -2.586195716144646 0.3460966856187675 -2.1341351764889223 -1.4536945901671614 -0.2650515448482661 -1.292475570858427 -1.7384813901219107 -0.30532249537273337 -2.618499565597601 -1.024588250940814 -0.26958005955635556 -3.291397791264885 -3.0773578289801016 0.40680752184177393 -2.35406992447606 -1.9476365818379369 1.3306406010307321 0.608626002301079 2.7210820983609514 2.2702348927138467 0.5041112049082603 -0.6765883659313747 2.1654159300610147 -0.5239204310946816 0.537235213928331 2.14452913169611 -1.6071982003476162 -3.297962700736187 -0.9035199352233582 -0.8271606326887079 0.7713235429363445 1.827814619942787 -0.6802465200411572 0.9396192525332663 -0.5423258799494689 1.3003969854027122 -2.256309456813115 3.995295218161379 -1.5462782232812118 -1.0499741918257046 -3.349147341312413 1.2840212703991383 -0.017519286790037693 1.1408342804915244 -0.7949921047580157 -0.9347276885577286 0.609317133218623 -0.032971248509654875 0.04371151790334751 0.4734874122625295 0.770902649136862 0.12592982388842652 -1.418071412804768 -1.6203370561488935 0.17037054140486002 0.9750778950658305 0.4329090720579258 2.1136755102482487 -0.11348119146094991 0.9788827045609975 -1.838070643493401 1.0439432337123173 1.0705610958970133 -1.356184086304534 -0.16084979890785145 -0.5304568408358035 2.0575092508060258 0.878747902234964 -0.47514384288434963 -1.2220334313496395 -0.660136278117268 -2.7729848984289407 0.15356275150924364 0.03966958555480794 -2.1125189175146155 0.2100829898933374 -0.2885590561583868 -0.27697126858450605 -0.5103265750744216 -0.2561611805773916 0.12162276357874183
user_21:4.085532854021972 -3.7648241001345504 9.154579201928222 -0.45517724598031106 -4.222300720486185 -1.1321648070110704 0.6537790121989 -2.690253275319887 2.9760299409893367 -4.004647374506753 2.5918898360350697 -1.6519100119187256 -0.7862077419857673 -0.843795535009926 1.5107188662227404 0.24898437320062955 -0.33864633093919155 1.5042498957485118 0.5562440209776212 0.999043960307566 2.1539787454092743 -0.4707230758269323 -1.6735413013118992 1.4204880035816492 4.692169331411041 2.5095870948335923 0.49987969561156265 1.6442337889497585 0.3637760293465858 1.443242179632473 -5.221136566108031 1.1657074629279658 -0.33598322889188414 2.9234883486332017 -3.4504910838645184 2.5897990232292583 -2.818444535627698 -0.5777059747256778 2.519992033498205 1.1064402968778015 1.557977139420721 0.018900935232557037 0.014566190066233442 1.6257674009279313 1.0648953943352497 -0.7588942136182969 1.2795042197511228 0.3598003078910892 -2.3427872991354293 -0.3817882906711426 -0.6051466430147733 0.059723280124588274 0.4445334865683989 -0.1174275133037701 0.6271194286638193 0.9329725704489105 0.802546850519275 0.4486660703000287 0.4803061959930902 -0.6053562639316064 -1.270264798339672 0.14500648872032845 -0.4899254552903506 1.7944717629308373 0.6998526531640133 -1.301864448700385 -0.054727924817385976 0.5307062882426744 -2.4231861421050356 -0.03506789011214073 2.4038553592284293 -1.896817709387365 0.5583247211429291 0.23209228974074486 0.21150876756536763 -0.7536369202706638 0.29599811839191736 -1.6482094768800124 1.1272702082789854 0.6078035826491475 -0.9364686963720941 -0.1601316205400162 -0.16823969231429925 -0.28627867702514276 0.11076760693619106 -0.17491384596101195 0.5033241091465728 -1.3909592061290883 0.6257044556358808 -0.013677849748401028 0.06495194129830562 0.7365161714457713 0.3051824809782682 0.3508985125854036 -0.34436975333272246 -0.5985566733035439 -1.1015040633070519 0.6139426590815152 -1.314291895850847 0.1455720920072379 0.1517472102150892 -0.12444161522799613 -1.0368158858852587 -0.4595361450618385 1.0452028048234763 -0.15237131929877779 0.09105108368862516 -0.6422523196592997 0.7862083473974432 0.6785304451801297 0.12850102679293118 0.11379890314173768 -0.8014096858104808 0.9633753675683214 -0.8924120486084484 0.10694915099454327 0.7428630425216152 0.729397972332536 -0.6117914461812997 0.20200364466567255 0.8312366050579012 -0.037699342271992814 0.2945214469623156 -0.03940588956863027 -1.3326778532969112 -0.26125281021450963 0.12375979419807015 0.46503281414010567
user_22:37.48721391026065 -28.241363283921746 -5.160654950429634 7.316395858440982 -5.18127818133197 5.991662300680941 -0.8888444815236968 18.65515490300684 -9.715369534028875 2.7175332393397325 -2.5162668169501807 -10.971540185104057 -5.107493213761611 -1.5899422456119647 -8.718110077897252 2.9545137930644128 1.4873567468976387 -3.41532739441799 6.497688324148742 -3.7056568765432036 -4.77856650345425 5.237157154298918 -0.9138989681114078 -4.360836188985224 4.04495638279793 -0.5017438045116103 -2.086397765240646 5.620140521414014 2.0452793949588286 -5.875081747765903 -5.628774817475247 3.430968469739142 -2.4777055270031516 1.265617997758716 2.5423650448351123 0.3383265404097666 1.2511559153080793 3.398330597766485 -2.7416114314615125 3.6465271248720725 -1.1267760163452807 3.125128183471787 3.343258902899805 1.7235655520436663 1.1198850774524107 -0.9907103346829599 2.2268640017263817 -0.8322480517237681 1.819103638092368 1.1215363932916618 -5.501563716381903 0.3795741008132078 3.046426164511658 -1.827559058044658 3.2845051980559727 -3.3746039395534195 1.4871548937006618 -3.8562863214841867 -0.20360047422903865 -0.48651172778414675 1.0892629327934942 0.7722098946698844 4.379227093261608 1.8934352426760133 -0.7000256282904473 -2.8008136725764756 -3.078595795732599 -1.3219090429817228 -0.03579580968973052 -3.849761990574329 -2.913989610571209 -1.37894136257417 0.7816691942813196 -0.26800757192701535 0.45198253401680527 0.4834577181547024 -0.8211446148751473 2.7590475358512774 -0.8796311717865286 -0.05559399767132009 2.007063138391857 -1.1812651085245143 2.3859794509874255 -1.5167072973327567 -1.9278513922250502 0.6699480230321084 0.43597534063099475 -1.1977224991271973 2.278975931177745 -0.8808428390932934 -1.4670727528463974 -0.7479860648370233 0.2237100238673388 -1.1096763955138296 1.1618723873272 1.7270787066970867 3.3133780801645125 -1.7361844281454593 -4.2853620994602295 -0.6114346257913671 0.7283265871425477 0.8187467824563984 -1.9629186741899058 2.275578961673294 -0.582236630277824 -0.48078154980212046 -2.7841792362952265 0.8833028069591784 1.1516776383796516 -1.7232919025111995 -3.800208422787343 1.6864503278933176 2.0610105725889136 -1.6132834894076422 -1.4227159671343836 -0.08336449205603616 -1.5558833200963456 -1.2614382253782177 -2.397839629607872 0.181682137494028 0.5276167278523565 -0.8524244866046562 0.7006557170570196 1.7204631579594911 -1.7499222033098536 0.14443701058282402 0.6880949997854479 -2.483232262053799
user_23:3.8478506487497355 0.5123236473405647 1.1021065340949632 1.604086247283459 0.7201684612413822 -0.46440672557446994 -0.590025413708397 2.455120759915007 -0.20623788712805885 0.18995754697142558 2.0551313909825284 2.89940921696573 -0.030284800816077595 3.38321527250365 1.047516120699422 0.4314339386754298 -1.1722511235551647 3.006965303889759 1.1800353687759684 0.5167536978680355 0.3859364232324022 0.1802815654291718 -1.0067872635334272 -1.1585898701627835 -0.20673534479683875 -1.583900270782479 1.726914325028555 0.361667136309932 3.111952607902165 -0.87270380644154 2.0626556035301435 0.05743775187278999 0.9258503091511919 1.720481474517386 -0.3724875344459747 0.33106660683488853 -0.9702963052424437 0.3165609285153331 2.866557801082579 1.7283877020954774 -1.795950876109854 -0.20436451828416038 -0.12666321840604622 -1.1981877919221167 0.36628853659553584 0.5154571487612563 2.895552573679463 0.3381867261883369 0.7205883419342411 -0.5198738512811264 -0.3117673962861607 -0.27094072428319377 -0.5288838505606852 0.8462615545389369 -1.2256796483266208 -0.8502801651366827 -0.6242277333673598 -0.052307398233374824 1.098147369510729 -0.9721910224329018 0.9503850157175078 -0.7859824136334188 0.6645598025015362 -0.6062338824677479 -2.1506018572112673 0.914799157490017 0.33854920656278703 -0.2592698408150004 0.4341396926580701 0.7768129855368922 0.5357011935388942 -1.0226846593408108 -0.9150937244225199 -0.12529286929087685 0.9704154163668446 0.15017651446459274 -0.9739558424073421 0.044851355074776916 -0.1774231597205465 0.914467930622849 -0.3863854369614458 -0.18910131910396738 -0.8180667652071837 1.2716335798926444 -0.8253045826290495 0.5819183595136177 0.39766015114149333 0.5549008204189069 -0.2712980889502975 0.315375912383694 -0.27342070468254587 1.6257066133739326 -0.039467357308796525 0.2945756496963018 -0.2851087233367327 -0.015153787071093938 0.464924066185886 0.18537893240430187 -0.9975088710531693 0.12962510866629595 0.5403288692750479 0.47062390045625996 0.17348449281542416 -0.6407995318304048 0.687714062408015 -0.03277792259848297 -0.9625828271946737 -0.09217704448320677 1.2115821662431778 -0.054459358607590685 0.045022919014473695 0.1915650238685611 -0.04326253054281588 -1.0978047105330109 -0.3324854298172236 0.5240985267757712 -0.9880393339799558 0.30934328451910026 -0.21180638601627177 0.24357510815068673 -0.34682599755499155 0.43579385062445786 -0.5846478312394117 -0.17662142073976397 0.1243789919361816 0.6461127124209531 0.8819266454621963 -0.35807589296273706
user_24:10.76169110626147 -9.108591838058405 16.467975635066118 2.485340883917458 -10.838229218035472 -2.732283679120224 0.0918529533793889 -0.8797919603700075 1.9057916416108491 0.12313891056485715 3.1603947826707066 -3.028200229656295 -2.720102310460648 1.282205369372885 -0.19229912818937273 1.1951813595876397 2.0988953862596964 0.35741414081181366 1.468808336268509 0.2707272622253638 -0.39417925183540137 -0.21502498138881848 -0.8976706866868908 0.4806033592656008 -0.18747528895314572 0.45289607429578616 1.8679725239602074 1.3593136681662419 -0.7470732841714649 -0.37516295140460504 0.8296620668822244 2.7720803324757544 0.3603314744926873 0.9005203661960984 -1.9330949843452558 -2.661468014492816 -0.10411235468006821 -0.04047875809986805 -1.1029211531569398 0.5377513863416953 -0.7187881598341086 -0.30340744852362345 0.6313172990457813 -0.45460749001633227 1.1452379996282327 -1.3331543605364382 1.8246446901576119 0.29786654060277806 0.056058529288992 -0.48424306959437313 1.3980887794804218 0.3198420552688798 0.3406365676312055 0.2776260012314546 -0.17909899588555786 -0.9658738473827075 -0.3491665225927598 0.5019980715911369 -1.3383491904875564 -1.614648844158428 -1.6760971710756012 -1.7714985919683628 -0.8459515840813902 -0.9843691195577972 1.038981009712284 -0.5136425105530189 0.6815086027421136 0.9949208011467122 0.7456416254267234 -2.53333093095787 0.42284026645603257 0.008797417844559507 0.5004917335153025 -0.20272485715504612 0.5566159006232432 -0.09235344839189977 -1.1078893786179516 0.1171329188610732 -0.7806958472355986 1.107577798190313 0.4835515974716792 0.5041168867153971 -1.4028621122117826 -0.1504014882032863 1.7165928960348444 -0.967529794484844 -0.4516623728040889 -0.17819562826727844 0.686596163202031 1.0184684226669973 -1.810624402012697 -1.0488768383588587 -0.0908800477746621 1.5940317804945037 -1.2987318260033445 1.8676211131095333 -0.63985660741327 -2.234610583218286 0.47295762284816434 -0.33020712947226905 -1.0423218454031216 0.2540219541229578 1.3263762920206963 1.3287014263749677 -0.013998678777988327 0.5851773417841954 -1.8299223417031822 0.08437536240421589 -1.1060993577295828 0.13842107737680517 -0.06585237727017437 0.014134440260431855 -0.07963100184087124 -0.6219890442024987 -0.9166889500015735 0.9053238824804424 0.5586825680642296 0.5506547496297256 -1.5414152048771348 0.2472532420972749 -1.22994091619532 0.0411156489708184 0.18415346793319642 0.9117441337736373 1.4759463004429145 -0.04369460792820154 -0.5254255561131516 -0.6903824244639197
user_25:7.309270196026218 -0.5782241454471869 6.476915670378065 4.603631492887522 0.6288901973793769 0.4537389763489506 1.1859113866368591 1.6294431959324953 -0.48175393096655394 0.9448656633830611 1.187148008938093 1.0704357702135308 0.13111228979202671 0.3778563614039246 4.183840622837281 3.846564953112022 -0.599189879688784 -0.6934888496446137 0.6847020290034376 -0.7559521282010917 2.411203138822975 0.4542062709158642 1.4275269983705412 2.3114642558366008 -0.37549358671652394 0.012597647542649845 -0.21050674480953924 1.4110190730625845 0.5069131832513004 2.037076616145128 0.7578498160863388 0.8025701872567053 -0.045183269814248084 -0.7925348350337712 0.00819180278879661 -0.7265311624711478 1.0269733358975395 -0.4977254934215928 -1.7831175511512074 -0.32978323907970497 -2.1719960318271285 -0.48016291857048243 -2.0078102120649164 -2.053174191961433 1.46219585320214 2.2141930952627162 -1.107054236149812 0.13259643323114018 2.523147365393585 1.5283484806860976 0.8601879942284087 -1.4730792843880176 -0.6364058616823783 -0.6288249943148613 -0.3850947781642296 -1.3795114137735347 -0.6772377100970935 0.042683212332557306 2.2895424868290277 1.7605738616736024 0.7828957755952687 -0.15267601794356844 -0.5029531977198369 0.1855309646278573 0.07169198598541049 1.333455437478725 0.8573266726045062 -1.7462429839947335 1.5035200739317507 -0.6182847115770327 -1.526475957655275 0.3899661505358934 0.03842513695063671 1.2311718372036982 0.25125856121292295 -0.10416744303601527 1.2223836143913875 -0.9005394650840206 0.9710405717098091 -1.8311655311619448 0.5652468526863372 0.706733424798154 2.4442513407386883 0.9252858731107995 -0.06349726876305388 -1.9052062856120895 -0.8133201976251576 0.14095180100418891 0.5887185727975708 -0.6517275660881456 -0.006522923826962734 -1.2417287278774376 -0.9142946365730551 0.20432169032437036 0.1588772233588185 0.7454479729143025 0.10181801527413759 -0.8867010188184883 0.47832145234602647 -0.40883849305247566 -0.6099788702193122 0.4324309447595298 0.21425726492243155 -1.7917618370107835 1.363376020129731 0.21160644324824776 2.0010024249572744 0.39399608016726495 -0.00815151314348811 0.3577872478242174 0.7204383664747397 0.2168858713520942 0.31676124203085254 0.39536662776064674 0.298437519604387 0.1382094185019485 -0.13246374660482613 -0.1844543114300014 0.6804619354187464 1.1515494065023588 -0.6691766945483912 -0.29820210078797843 0.3877833432533796 0.5665362392312954 -0.4334708512156194 0.35441486145371787 0.3330445363567476 0.15598355349030887
user_26:6.786791396685303 -4.199208997249948 -0.1994428000195588 1.0558084736046796 1.0169489658260196 4.507867261847078 0.5489657835004244 2.789643393476381 2.0955926523172272 -4.129453040103712 -0.8140551802579679 1.0901363034866802 2.004751858622599 -1.3114123830101394 -0.9740471399232279 1.2970256324929048 0.8413336382197338 -0.9824850296861959 -0.08605956409076682 -1.3827170078355513 -0.633202414114163 2.238559242665333 1.5316708569813475 -0.9902505582530328 0.4846553241751119 -0.9191099284303605 -0.7419986173158368 0.3018453423080516 -2.6661661835254273 1.3969120555548515 1.6327053337666413 0.04267164195867981 0.6756973466186238 -0.3540509104167125 1.4672366784427813 -0.7009745463420337 -1.2364600679600435 1.7002256702092808 -1.8216616299742083 0.28249248997781745 -0.1647889251134574 -0.10277008197033373 -2.121150740879214 -0.25013946066302856 1.047636619238751 0.4099655292183494 1.2762826188976713 -1.6835736752728447 1.5172149256439211 -1.0137840181136057 -1.2086874219581563 -2.2963251281052965 0.014441711214201156 -1.6327680781565252 1.9035007141488829 0.5189386663208578 -1.6334407091823553 -0.6078935415247615 0.30767084770316777 0.43819072081377214 -1.481994617495865 -1.7626336235367348 -0.8144927333912165 0.34432758893353005 1.1371725092988298 -0.910992302745162 0.47677998091364604 -0.1121086606454341 0.9398888097924526 -0.21875324180841832 0.9946696438780236 0.7389820941611014 -1.2077986837197117 0.47328100915114585 0.18856788385419956 -2.212008239197814 0.3453195166938007 0.11907573994898245 1.301958896754484 1.7259878443642178 0.34846745775012905 -0.6522292318924694 0.2979851007329498 2.2028946401482363 0.8517579763305273 -0.9620744746242061 -0.911620966360104 -1.5786142023690541 1.1499524346487495 0.22735878915714688 -0.15986599929516754 1.3992789180872283 -1.131062523753091 0.19010082195564254 -1.0469881553137288 -0.6894850542072575 0.11106345464674958 0.32772777766030464 -1.1149310865436852 -1.25750567252493 -0.43254973082191667 0.20766816791078796 -1.2306764837728361 -2.2914494066213043 -0.2082996963470665 0.09000787788404746 1.2912672988101714 0.18140519817732859 0.8770928519864806 0.2087526582094575 -1.0474921807604858 -2.167584492047788 -1.113940764770523 0.9669858446490727 -0.26685921976093735 -0.25692135058559346 -1.0021180794983064 -0.6627988316170755 0.9305135948408763 -1.4093528136932434 0.9536226401293797 -0.4767415770181983 0.07915733700106363 -0.11272833864131848 -0.06961669138460157 -0.5928646385268783 1.2522128111627424 -1.0983946248933045
user_27:9.272353703513643 -3.2831718353888824 0.6780338904676495 1.1493817181714714 7.687776465902286 0.6751297623262286 8.57632809051025 -4.0463396095895146 -2.622005461768531 2.7385114577127085 0.21133492901518286 -3.124240836724088 5.07905301425608 -3.464461028680001 0.1919891120677396 4.127608546680665 -0.2551492449052154 -0.43480842383460777 -1.7055248263841412 -2.289017142697355 1.9732196794177452 -1.1799063142074016 -5.299508419237053 2.4030041233877446 -1.2271186906582245 0.9497405547815958 -3.024482988236266 1.7657371193552622 -0.07501304661762614 -2.901332634771999 0.7004670147309778 1.5802683327673737 -2.4732118034963184 -0.7871497643865045 -3.042704757319221 -0.8010161171808443 -2.8329285756736837 -1.8432294556407063 0.32732276364083723 -1.5334261521824728 -1.128639699780268 1.0234707623544008 -0.6025688557599567 0.7484094314655174 0.6896415335079095 1.6827218017959142 1.3195148853448873 0.3573169107241852 -1.9553782729869957 1.902089916600169 1.0039328470753814 0.015359975749369585 -2.3325321628264306 -0.244750100731215 -0.04474858488194078 -1.0682490109301634 -0.3126342837373889 3.8306074546337765 0.5924100272176339 -1.1756014613187142 1.656537726585149 -0.7339035210945253 -0.6122771838122799 -0.08955413572255283 0.33519101195160583 0.04454874637538807 0.17732183289403392 -0.35541390578276755 -1.7567100272513538 -1.3009464945992444 0.5886597147480137 -1.7546749563770905 0.25278219319082024 -0.6512930499334008 3.1901324504333832 -0.696182300265837 1.0576596139047976 1.8540996626906205 1.1822987026286265 0.781402383355262 -0.3448771380213108 -1.787277686992475 -0.5675189519847755 -0.8366840266891221 -2.043592100671292 -0.07761543379428683 0.710971509852229 -0.2292220432671607 1.0535407233531229 -0.1918372296916889 0.056786575885391544 0.13759336922572565 -0.5437821475867621 -0.2597319119422363 0.13729521384390225 -0.3350051621855537 -1.6773313835439332 -0.02166855257662611 0.11942767591966802 -0.9246326471479596 -0.41517186548094526 -0.1275248114840986 0.9007702953924559 -0.3457271862344215 1.180255175499237 -0.6785096183305904 0.9289543109134744 -0.8551235417043204 0.4881263299807505 -0.46902366866286715 -0.7604615058042634 -0.9884831384916866 0.011061719139776556 -0.6414968457186321 -0.08987811638813738 -1.3892335065431487 -0.6511137577381637 -0.5065463018263513 -0.44389138513415205 -1.9131950032121234 1.6040368017426687 0.7726836176470728 -0.4687481634045513 -0.43862836372061875 -1.7779352863606308 -0.9293228681228005 -0.5093782621067168 1.166062050095773
user_28:1.1946694839913068 -0.1959537152927586 -0.6819513273344628 -0.28010354452390107 -0.9646876011215388 -0.557617596022429 -0.40061995663607597 0.21904960327860956 -1.6079465022388912 0.6484202529467535 -0.08968631467453513 0.4162324872653871 -0.01211576110361958 0.30210919075142006 0.3484564297179297 0.598130052679224 0.2588429421292944 -0.3744319319258346 0.6722577624246379 -0.4754675955655676 0.07421578120560299 -0.31539167429186876 -0.3856165064540159 0.018188839218324124 0.12350276365030292 0.5321580412100414 0.32698210750846274 -0.14083939666024795 -0.248687289737961 0.15644064849452038 -0.04270919749594168 -0.16655257022948217 -0.3443313543242467 0.018408384952886908 -0.38236684966658163 0.06216098559584349 0.7993425747661433 0.5133920370640428 -0.44872310854887276 -0.8189451615125407 0.24188817906192694 -0.42225050891797905 0.15349887343940793 0.30593864772911333 0.6467224032702295 -0.03950091450444994 -0.1913904198022754 -0.42164108359618735 0.24105032989486896 -0.5434347369076672 0.29407916516935095 -0.21358091263332632 0.06531069557507074 -0.10168404241196241 0.3879983037113059 0.5739014062132437 0.4755907309815883 -0.23289889138537725 -0.13736569823045555 -0.3690803255663383 -0.22223924610090182 0.5419276826181291 -0.6646893845970789 0.14515002594684812 0.08665429067709877 -0.7242092480351338 -0.11500791940518734 -0.7328147431415799 0.7724176820289617 1.3210980983831662 0.6208757973435686 -0.5038465093309886 -0.4166798360619495 -0.020683120532500994 -0.5891346639974432 0.03992892482253385 0.528524841696033 0.6245507614202968 -0.20198088726608293 0.6251632087153799 0.14774245803372968 -0.43524495865136176 -0.4772786088043408 0.5149061651029714 -0.7165407615926045 0.19480344849271347 0.6738365372034109 -0.5829892058285727 -0.3016857092311418 -0.8197527738106304 -0.4798262972354372 -0.09038579840573614 0.8447325641806864 0.2742188901099322 -0.29354056990871674 -0.3483587576966025 -0.7845029534129224 0.6320455283059156 0.73451513859581 0.5502094859936482 -0.22157940603587373 0.2531020846639972 0.22553002767495448 -0.44368096704917026 -0.2907877212289158 0.3716869925920198 0.08781169773258286 -0.20564653268202354 0.15133665718539058 0.2948453184088625 0.36929811562930615 0.5031785357415696 0.05379632483865439 0.05978281000288413 0.7781530477971533 0.2932212576429913 -0.27331463536603506 0.07117192366463047 0.33408572259257696 0.2444646084315807 0.46572385329246835 -0.4080392555475787 -0.17840324777552657 -0.21724065598455106 -0.28256638328775946 -0.14687091196615734 0.32384528559528813 0.1261648846390429
user_29:4.317031681210415 -0.3310383556294368 -0.10901248466832285 -1.0532321992486786 2.456085809279976 1.4510857874462533 0.15939985966928072 -1.0597744474050883 -0.565514564154885 -1.6091243070581662 -0.9589934126256279 -1.3906580567189974 -1.483382608135021 -1.0015272557567805 -1.087620575624539 0.08130245859331171 -0.8697524203857641 1.661961477965884 -0.693301511692989 -0.8651065360402829 -0.43208543707830815 1.5565252866991204 1.1177510620307096 -1.0139456137885834 -1.062416260916006 -0.2447675706374383 0.8570977602105532 -0.128055198486226 0.26219726085890643 1.287436377238051 -0.08351657112645768 0.985862362271619 0.5271850810075086 -1.3300694758166172 0.18021772974820405 2.022186238865766 1.124833163696867 -1.295284238477813 2.084389472982897 -0.05940694017255499 -0.241688839762302 -1.7081078085226005 2.0264976843457676 -0.8628969730435757 -1.2769192278939223 -1.4658496738027589 -0.5107396998577588 -0.07097390860130387 1.850055696625468 -1.8408937159373095 -0.14454426042353227 0.5476266235084867 -1.949485052316012 1.79178120939179 0.4951625253676207 0.45947252130091104 0.5353633172968677 1.313597362196081 0.7749768593806227 0.1653680530963196 0.39274006797916133 1.4226345479373972 -0.5932269811430294 1.0496049067006088 -0.19098614431582128 -0.9993986302240156 0.27661510128647565 0.12400938937563491 1.2759714746137245 -1.749574366059825 1.160606479708297 -0.17889376571686033 0.37743066244367834 0.2637290988817456 -0.6859084062226017 -0.4635649348681293 -0.6780114502288294 -0.5202817689946061 -1.37673886620152 0.33387695636758746 0.5382073878972115 -0.6406567871353032 -0.7775644179334492 -0.6621504720395065 0.9575667039697657 -0.9490919003511308 0.8520740276162232 0.10770455092290038 0.08881593373408986 0.4530367694772277 -1.2902956667269658 0.694516879209151 -1.3040102074785247 -1.4308040123494077 0.23471399618434555 0.60950698915253 0.17928808236327465 -0.6166045510781107 1.0865353898150079 0.6210271767997643 -0.4824804715526194 -0.3417505350929683 0.6109256201638089 0.8749930562031473 1.4772433619570193 -0.09129811309628375 -0.4128169159709507 0.7994480927594053 0.20066889133360352 0.6070176238005738 0.3591216196681359 1.181438906647814 0.6681596127185784 -0.2619405326959648 0.2727832480899959 1.1749136073233182 -0.584803493766731 -0.03028632079307353 1.0105961432713553 1.8111989920792855 -0.33629563040222965 -0.0977680403307757 -0.07676527733747435 0.5371408646467127 0.04416710698581477 1.9049967775625085 0.030437127851323763 -0.9489225308019098
user_30:26.95758785275284 -4.3858026628109705 3.906749208697296 2.976528958924294 0.02411430497852784 -1.774669206173583 -6.782136944555097 3.14124347693539 3.6375265063500604 -4.194334610772003 -4.37163107895646 -2.776247960533314 0.6515318411766942 -3.1559519167226258 0.3196711619931138 1.0105495986040287 -3.6986839582596276 -2.3723498538309804 -0.9363548840416739 -1.2105192676177396 1.1967340146062058 -3.5511525089087654 4.1434609168612635 0.6803365040384919 2.8690000605162718 -4.008667989499198 1.1104291346458166 1.0206539055620574 3.5221700855415126 -2.1665666402258728 1.9526917822398768 -0.02437109927757367 1.5219501402958595 1.8435243888874893 -1.6009746878916515 2.445978735170311 0.6772584375220346 -0.796102920591317 1.4812652241655837 -0.19147107137195188 0.28671358384241774 -1.3931727022257772 0.6456602698341602 1.8008561610772864 1.1781838588215352 -0.35852820510647054 0.7121313707481566 -0.37282562021949484 -2.0339218482176524 -1.2347027516999955 -1.6039584372850662 -1.1077540762083444 2.056050923256037 -0.5352297955498385 1.0672278390065104 -1.44944258424999 -1.200450087630408 1.5681052560542081 -1.455143396086772 -2.13173322110012 1.3229056436749524 -0.027674176523875497 -2.515426309600605 -1.5519740410218066 1.5814491218495996 2.1987001269155533 -1.7587606311033972 -0.09563256543276576 -0.6459705767704327 -1.5647647342241122 1.8244794514078668 -1.930273510472414 0.5584113157790069 -1.1650646001681764 2.047212141178324 0.2651532810978126 1.8135559250635305 1.4075160102641595 -0.9032307764705665 -2.026629064169105 0.18076278404791604 -1.5430638944384933 -0.3261756944801006 -2.0643317316945224 -0.9021082570026944 -0.4349042150271547 -1.2967073035173684 2.234739250209818 -1.4821674990631974 1.2328238214653644 0.6509036155625915 -1.0680386436277771 1.031679869992987 0.5065094532160257 -2.38916203496845 0.7848309767592674 0.2595356696568554 0.372430428552776 0.09415370451409873 0.42175214266915595 1.554089446936723 1.7638915164539002 -0.3061328119582734 0.8691508012680839 -0.27285609304338426 -0.6697778369706388 0.5280245629200436 1.0856238173244033 -0.7861616854442018 0.3331724563064237 -0.9617630215382128 -0.9059652148747268 -1.2024792665458564 1.6189187498502184 0.18389179556368387 -0.24721117865466644 1.5597713421341102 -0.4720630848106847 -0.7112226921811768 -0.6388494192783923 0.7023359767724335 0.22923558298508628 1.9442830713809816 -0.41622284943729054 -0.16788969884936583 -0.5385375714335148 0.8639295571452157 0.718080217224338
user_31:6.870749335301313 -4.037914188560621 11.551934065486755 2.26219614591584 -4.588554325716627 -0.8958606146510335 -0.21568967555044666 -1.8232149068953019 1.7561066274421617 -4.539360780180412 3.257969112576244 -1.1527472851067562 0.4210426107380149 1.3227857022365843 2.7434910434387625 1.3293782911731489 -0.18753314145630784 -1.0207925790415284 0.7546400794820646 0.13009429900112512 1.9983297824123998 0.4813587815492399 0.06288265422551784 0.8864021640450079 1.3102405489384037 -0.13551709927786465 0.8518945891872902 1.7688832050729557 0.3247279904666823 1.8903883140187636 -0.90546516823831 -1.3289730726450575 -0.8052463668229657 -0.878878579122628 1.238447207903406 -0.2849933144622606 0.1331886245955647 -0.17691417137175042 -0.011418165580192569 -0.5653110454526609 -1.9952476180313259 1.6398608172856388 -0.9901064572891298 0.7841639306484488 0.47895999016236573 1.7882053339098563 0.6410369134011015 -0.040474450874554146 0.010621603568587795 -1.1114650742371994 -1.164884637449863 0.7310310696373397 -1.0136650463918389 0.9997203861831696 1.0794507587652193 1.8017746900491702 -0.2569164161044275 0.7588730452863004 -0.34240492711780435 -0.7522881702856877 1.0770559542090985 -0.4262940597356921 0.9250637927878926 0.27316863084462284 -0.9387274300343041 -0.9788289003766895 1.5003670851910687 0.7800172535501797 0.4815525117475359 -0.6784321223232453 -0.048258537564795534 -0.6115455211693801 -0.19118851529339242 -1.6303154195983438 -0.5641687334643298 0.8139224550632471 2.424272517810218 0.6481033191121592 0.44785470436160296 -1.995336259670104 -0.423709743244232 0.5078507055155189 -0.09903156639837307 0.8278823756593484 0.6887868386178484 1.0265508470672409 -0.4778322936983295 -0.46568168423844125 0.0035262175697789305 0.44034829813215637 -0.7459810757112555 -1.0745365836949796 -0.5774267325819459 -0.7237387502689626 -0.22953047754183883 0.9489157141806042 0.5034911168382366 0.1570519430210675 0.7197512529095513 -1.1300541768889887 0.5559824504448988 -0.31304979386828957 0.8233678461315517 0.03922935267178074 -0.16032005101428015 -0.4686782289036674 -1.10170730599365 -0.33775127705219976 -0.2941650282172137 -1.384696944712093 0.39921711360343015 0.5808148448331985 0.191509093218033 -0.7530095862418966 0.8520864009477588 0.1112075285990253 -0.10609885946667308 -1.4551324671718042 0.7010776903794604 0.46135831121192594 -1.5386367765519076 0.5782937723419697 -0.1752495276932604 0.49231983976624993 0.639387539607336 0.12581306701712608 0.339211887972732 0.9231345357013272
user_32:6.640754337255614 1.4885642495661857 2.9414053440937904 8.088135952695886 -0.21255243795243797 -0.9058384216247672 -1.0902081299828907 3.2987435714148674 -0.4959008440067072 -0.0741788005885006 3.317049446607557 4.017954165545905 -0.06708892805312705 4.020613152445939 1.5689996383077172 1.965789257023289 -0.0780523606359452 1.6860013076540383 2.1268298396606404 0.004168243472679245 1.1158549771193966 2.7386842845515678 -0.21634450224884008 -0.6138630568430916 1.4519162237558256 -0.4969958870474035 0.7315867841908542 0.4850745118487403 1.3704222321214505 -0.7988631814404169 2.429167027380619 -2.33907079786262 -0.016290846663516198 1.014753372255478 0.6226403094795447 -0.7884416139507956 -0.6475593093079258 0.09247254601888434 2.0018172195981374 -0.6471035523727235 -0.41757590324052135 -0.29620782943492385 -0.4486925740066523 -1.824726621613745 -0.7282391731532345 -0.7285535981030453 0.5135261904385957 0.19454295536444272 -0.18943613786790822 0.6212040527932833 1.6171518486248506 0.3229179668192111 -0.21867995245940158 -0.38172697063358485 -0.006376305535835014 -0.8266747214567404 -0.30663614009917206 -0.3907845362129084 1.1870497160424556 0.6793074618410945 0.4011119044871917 -0.7825976527791146 0.8433132256172823 -1.073592554957168 0.5099336156203838 -1.1976849071468594 0.21958743057967484 0.5628861515603591 0.20515810778562882 1.480824540733704 0.8865875812076729 0.7846393859713648 -1.3001942472191121 -0.2813913560522926 -0.24528306867874622 2.192264242644279 -0.9530965082845524 0.39068178084701455 0.6631547389985517 -0.63802700262015 -0.09433531225489351 -0.9267190121917698 -0.2949798734381782 -0.9037735832037297 -0.7168713072981396 0.1593386510132399 0.6038753170892835 0.7831323145229455 -0.49409331789501143 0.19034608947320025 -0.8128049992271033 0.6874900924400987 0.7358766476298586 -0.7768160118839582 -0.7232394823988075 -1.4247163750894278 0.5341103969675602 1.54259522185993 -1.686974675727627 1.8712130929911177 0.06289394269355439 0.0557512810748543 -0.5069712024976183 -0.1372572857795304 -1.5092359833399267 0.5833068810586794 0.2753669898836335 0.03471488841759532 1.640629029007887 0.9990771694754688 0.9581659137553499 0.36673089457923674 -0.19637122382674266 0.4270246303690267 -0.7837396198106195 -0.2237214230626844 -0.22764367641897693 -0.0013651296424995046 0.890296349616422 0.24130717169704002 0.10668265320133397 0.6628022026333993 -0.6477313824147533 -0.18923702091666794 0.3427733904956049 1.6730804719616745 -0.19771897600880373 0.7832180543214554
user_33:2.6724942165415553 -0.17094636389102794 0.4392031854550442 1.8114096126409518 0.0923345334124173 -0.27435379820093964 0.17037655936627166 1.2191173457956357 -0.6225515952250512 0.0609136344971101 0.9580279818217261 2.259245007448372 -0.0360419517574236 1.9493315450102795 0.8355251512376531 0.25511071829159265 -0.2638376169216277 0.7754627009252459 0.5758398561552412 -0.5552612577679529 0.35895812841417757 0.4466207591959576 -0.6315129205522465 0.5100973393264281 1.2875247700888452 -0.8792953241379812 -0.4670103271028745 -0.24389279992303017 -0.05126960258569451 -0.6848533320710466 0.11897806404187951 -0.8819354728966087 0.33974030321642906 1.334701654947917 -0.10460966644257236 0.36643176982276965 -0.22791811894050457 0.8870235196381032 1.257565479451827 -0.3959858149680177 0.23217013873449527 0.5632918799644895 0.8565462067538102 -1.6995276324051574 0.03034407107017081 -0.7399381113673636 -0.9930407360887078 -0.9758775843071938 -0.13910371611821237 0.8660600460570531 1.3217440046040083 -0.3397646604003285 -0.16010759030607435 -0.9176252599771657 -0.3915782133365753 -1.2987505425937964 0.019394157722334666 -0.31883757176055116 3.1989957524837895 -0.011981655205470645 -0.40005941001514084 -0.6787125921829351 -0.492470567892484 -0.7506467353929622 0.05844587382777078 -0.20595027570399035 0.7985629329081732 1.387995429836353 0.21567189753565785 0.11316762688720797 -1.0668151452785686 0.7781496722353427 0.2260585026940715 -0.24846547350764792 -1.0111973067732467 0.6244758018344766 -0.8902747087320037 0.41474246337997206 -0.022879079342801756 -0.5522417082980573 -0.6873485959024233 0.4041817832684527 -0.8936866852560824 0.19907287082933195 -0.6862467704675715 0.3761715263204862 0.058670837075175404 0.6686493733182369 -0.45173113279318733 0.03994983292872592 -0.15584569019325906 0.04184102996862932 1.0657512111135699 -0.29704387408824723 -1.2580735173369562 -0.7753368045607149 -0.5659619581018671 -0.5634473768103118 -0.3796912629852991 0.22337092479067971 0.7789046145643734 -0.4024093975767766 -0.43877585455386814 -0.7738645901033436 -0.1321352507722016 0.3039488872491909 -0.3200153951031438 0.7217965772812435 -0.7646881624137811 0.643082955453127 -0.00220181953437584 -0.1874210902351285 -0.47819856590342996 -0.2585360580713604 0.23219762598227597 -0.22412068510145958 -0.04688191289209291 0.043376517705997604 -0.6943700052594103 -0.028748091593596335 -0.28287296020564406 0.04262990162325536 -0.6024013677883395 -0.6110102602418294 0.019719486421339066 0.31902383720168126 0.42529720077298167 -0.03709578951274052
user_34:5.774021915723754 2.585678740011005 2.3524667243174924 0.674258639451375 -2.7247009323628397 0.6383293061896469 -3.1248466854142016 2.9380352032039956 -2.107841182768332 -1.804032396019866 0.7626973090912071 0.7998249878209589 1.5497570530510323 -3.294961474874015 0.24790414592593066 -0.6018765942008929 -0.5222249966643289 -0.9773383724139971 -2.5494780150905707 0.4410487473027963 1.8779340169912062 0.32361380347089047 -2.2632423946108515 -1.6070977173069394 -1.885245224138103 0.6762033161389017 -0.8237986222129148 0.8992943935881939 -0.956583748734825 0.787501417736012 0.5435943771802336 -0.8399450951911742 -0.6819132218387742 -0.3641984310014517 -0.13533760036049297 0.44598876615373967 -0.6341264495806389 0.27894629401450177 -0.9989445187471863 1.6585264018147574 1.4166225260001415 0.5604779829191582 2.0256207543372273 -0.34810497517833866 -0.33145036235503766 -1.2409338318115677 -3.1930145538171075 -1.4398696452038646 -0.4563465855739558 -1.9341144215844177 -0.7986446094493576 0.0063285243393622626 1.374010124431038 -0.12810423623717818 -1.3366663298178019 -0.786544783992235 -0.9449170454745814 -2.2294480498167064 1.4934815282654623 -0.4536302959317049 1.8339730343599947 -0.24843274949884953 0.22947796128713308 -0.08412443071298698 -0.5976682645043245 0.4497972450148071 -1.4058412554872795 -1.468045804667408 0.4207725413432105 0.2663040672143632 0.9417834376087262 -0.2845958435527934 -0.7898833384317587 -0.48055022729337377 0.5539001670372194 -0.2524784529367985 -0.13952138032126682 -1.1443721306134635 -0.4557731565712486 1.8988422883494764 -1.7620854071373198 0.6211331450376029 1.9121414024465986 0.5145258132372034 1.8037108690035746 -1.9105199980786713 -0.9179832574348951 -0.03380723496781145 -0.04896459263574031 0.4455822388737729 -0.2887284739323719 0.33524875516655095 -1.1092845743600483 0.7367021053809705 0.47218840847547916 1.8109552357253524 0.6176932929547206 -1.0364106720006914 0.7028549787683163 2.3005289917291796 -0.77838121898865 2.0039546000299677 -0.26009431951259426 0.9013748906702432 1.1347084882651208 -0.20571939281262286 -0.18033502976985555 -0.9310768183064558 0.45263896302610107 -1.4382870138094692 -1.0696495398861996 -1.3436487077517043 2.3408898475653004 0.4482943525308741 0.08569504038015804 1.2388827671381388 2.027770923417799 0.2675686275490836 0.5120466233426945 1.2110102316426263 -0.05432033592126899 -1.2675021969972091 -0.22442281727437915 -0.13357592556824507 0.6985363890123066 0.5947659054899793 -0.07178949856845043 1.0601177488531452
user_35:11.893096848221903 -10.258598347601717 11.13767618786508 0.40399696755983994 -4.340601891140384 6.791251921390541 0.6689420040470033 -1.524251986955534 0.574738312201964 2.4204550192143515 -4.832362663720725 -0.9638525434711365 -0.19124756492331207 -4.339327545880025 -0.6779552307560556 3.471124722221803 2.175094596904805 0.9454494516231177 -1.1825509702976849 1.2819838212857118 -3.1070697593717638 1.1501707134053922 -2.275403937580045 -0.39487885858265204 -0.9385046417980106 -2.9789799367289738 1.8331690934815614 -1.3275679355147996 -2.4096983694464704 1.7861348117410685 -0.6934955624856625 -0.08582455436708401 -1.2077772263533895 -2.812791618208583 2.2230254518668726 3.491068956302249 -3.2070017286217625 0.9331407163833335 -1.3198208550961281 3.8237568752764814 1.784766105275736 1.03327794311686 2.1585585154871043 -0.5292591336049095 -2.959189263557704 -4.1006456435500604 -1.5897445267019243 3.4759403181364257 1.5002132214607338 1.7671764707066213 0.12380633149455875 0.9279689133610756 1.3191720044037811 0.2516012863511226 2.0936340097035533 -0.730309598478722 -0.06076811273419369 0.07850411807895968 0.2620972342894376 0.1587935961366039 0.22659641684097453 -0.48617980767373203 -1.912174108712276 -3.11838191033534 0.6460808632614737 1.9460427442246098 -2.8070304181845507 -0.11844817284069908 1.5813172295399731 0.7318131729721455 -1.0687302618529382 1.93918740342551 1.333928088028216 1.988308486119777 0.5191658025244638 0.31446442879013764 0.49534736021196046 -0.5567523700295769 0.6436047256284119 1.6043657502930215 -0.15852817473224004 0.8454003629941278 0.08486729365038811 -0.8928801851636494 0.6626254667335193 -1.147207660105451 -0.53639675116048 -1.200426375259755 1.1496535926637612 0.25232743274983044 2.9734855832409997 1.0004180875597066 0.5416327378619052 -0.01668792939002495 0.0508017723164807 -1.8243314825064751 0.6636392114949802 -0.6677576666848479 -0.4671750655744629 0.4794734366950113 1.3474142914472413 -0.7130223592113536 -0.7564909303628303 -1.1108115434676715 -0.40183625776789234 0.3300788259873181 0.12231830051006665 0.4373199874315856 1.360153278730071 -0.9260673281225846 -1.1850443591340265 0.8985365479443864 -0.3328583139575109 1.270954916461692 1.163828093874855 -0.24511701276458137 0.27963999059199535 0.4756453822420229 0.14218296673733732 0.41032515897198846 -1.5936023803264576 -0.6644196106520492 -0.0897182046668691 -0.012368316525079179 -1.1097730995125323 0.27151004285239416 -0.4570275182872709 0.5666421838843764
user_36:11.723613351964227 7.553538379103268 0.21376184109323676 11.226800301546252 -3.790051821207498 -5.177903657526517 -0.34927573743732443 2.412216032601399 -2.749888272279501 -0.8259386784818513 2.602437016072173 5.275364751115023 1.2461044327232873 -0.2520177895446899 -1.2582602356278536 -2.253576325885894 -2.4003934826431417 2.182309123198284 1.1990886562020007 0.21171488906640482 0.325550462797045 -0.23647279729785747 0.1580710450976697 3.4089515924938536 2.1729497760064618 -2.0808570360790988 -1.1427629572168303 -2.0582815253692965 -0.0928156162662782 0.1241679649152757 -0.5377767767691691 0.9468838510387486 0.5519914582934837 1.9619968212737067 -0.23609446658084393 0.4764377797972493 0.8806195193097657 1.1634464410344052 0.11168382631859802 -1.468293353418092 2.3522318905595214 1.084191672357622 -1.9185256970564921 -0.27672858327775385 -2.8213066161935814 -1.2173661848502864 -0.32358882798303273 -0.42595656449132235 2.292348501554866 0.0991689880702656 -0.6928145785524527 -0.6634679206087861 2.151340929743225 -2.8504879640298 0.5709846086622105 -0.4040943776830684 0.6309433867070645 -1.643241585418607 1.1151220739679522 -0.3897990174375572 2.2410539838056613 -1.7741777443328823 -2.1199769312782477 -0.2518603412071615 0.9692189707781199 2.9663385172515615 0.6086013385571656 -0.0787621375791463 3.3153621562520126 -2.405041326316191 -1.5806935098627193 -0.07524198936831426 0.02390001064976212 0.5950882319390993 3.0537330849630653 0.47409245216152557 -1.3877388399975015 0.6498697873453978 0.5092135822678486 1.304419492358774 0.044106816011245574 1.2552576114441962 3.5892202709349266 1.2270933688580707 0.12359418265949165 2.226089724963341 2.3039281135691376 -0.17370843454149507 -1.5491212463241948 0.8193161988953429 0.2940612503869885 0.7680703653069019 -1.2916898409192037 0.7288464830684049 2.0307313724655476 -0.5188307552345159 1.1215366024152853 -3.0440829182921645 2.995850581552425 -1.2748337105981002 1.1701963053538724 0.8042957013479407 2.261035757182217 0.2895536651818422 -1.0413754845915688 -0.057232111502274446 1.7976909184906371 -1.9961348319881016 -0.7990254643330305 -1.513922625358191 0.6098131451996607 -0.4588823351096609 -0.28780976210127673 1.0600407301879582 -0.2786927743102691 -1.8969910081557255 0.9365485085697656 -0.07979108411880624 -0.000630092301352865 0.02776347323007136 0.6466369539872422 1.0641253158960469 0.4533339893872582 -0.18631548589494132 0.3926562918284572 0.8792296425820489 -2.424429059630595 -1.0462329384526854
user_37:26.57274853928293 14.881204403684118 -1.9421533269536615 7.0330447940118495 3.5166271768597994 -5.47393362848534 -4.820871412382956 -2.3542058292065304 6.430974143250527 3.8153013533208604 0.8872256256836931 1.3781925680344682 -0.8217751547226874 -0.23774968834345522 -2.9960160111042957 4.545831786547087 2.217353701935336 6.103890000261721 2.70009359969115 3.847606966142562 0.39120355707930327 -0.5100435287615865 -0.4610245790497604 -2.620850139607495 -0.25288031526245913 -2.3041914756073156 -1.1765166014588455 -1.7567820974455588 -0.7194667572412871 1.3019451054404798 -1.8320963734872235 1.3204792063057702 5.024787429773479 -0.1801826275780269 0.29641360265089234 -0.6005101471321929 1.7535293815815411 0.4973488869502749 -1.5620376542554772 -1.0670361482973567 1.5072286270449726 1.2235624965876555 -0.7661435804738238 1.1146474803682438 -5.428933511884187 0.6514350878109008 3.105877879588625 7.139132553559088 1.227341305423916 -0.37569638026606084 2.263904671867142 -0.5897894471025604 1.8115373463350748 1.9536605751073521 2.244799511881717 -1.3896796334513497 -0.3066168748317411 -0.1466645077167495 0.9222428356031426 3.5626676995848983 -1.0374901907458327 1.8462018512390335 -1.260279362983265 0.3083009017928866 0.6910914256853656 -4.070108509546235 -1.3630636124924806 1.0369941736512371 0.9252470764125745 -1.0156123996424558 0.8484184841655457 0.07651574075757595 -0.5705246505327285 0.1018350859584825 1.666988317681748 0.36910664449234903 0.6369271387290134 -1.389112179938215 0.8129255477374968 -2.3143760340844466 0.5111509511436146 0.5556362164558901 -0.5526162259860401 -0.10801501833970119 0.4050678064668993 1.3507845677270203 0.9286753166736452 -0.5646357153582849 -0.7404827544593322 1.1113076598037301 3.002106191447914 0.598290259111732 0.4342368973509524 2.108201856447992 1.586356083540344 0.4855630048682574 -0.7171104303375699 -3.0483660450371075 0.3472404785667991 1.3780704305086109 2.8397774913262523 -1.0680622623667173 0.578718611883848 1.144894497146852 -0.5381709610448602 0.7935947329069957 -0.5204077655003313 -0.5041140227800316 0.8141092864817123 -0.503359425498745 1.3345619361441137 0.3070904206066584 0.3016261791914454 0.016417958389527226 1.2994642776964866 -1.579748930412617 1.793723170210565 2.0774488438601 -2.0509491867395857 0.5056878304751623 -2.403319530891244 -0.5798335362675588 1.8669377551997912 0.7938196253362602 -1.3720343552845722 0.2235944738570817 1.5047445121191252 0.9514276064929877
user_38:4.037890147460779 0.40626604898180363 -0.7063779540672127 3.9790631048179144 -0.15490073115533853 0.6976249847357805 0.0031066605574458367 -0.515780228919379 0.3097865335413034 1.7231589865557218 2.2117848228582044 2.3562949204256953 0.13726974914495882 0.13244279537472511 1.0204502886535272 1.4560293326695266 -1.0234325632731114 2.8622715108604124 0.49230775756085665 -0.883861093242966 1.1264539951109485 1.2278098714990109 -0.4770135067971961 -2.1285446900904126 -0.1383618519348534 0.19385465802194024 0.27161010606381386 0.8324533712268092 2.0812438949990253 0.23559394094001 1.122718867701931 -0.9584414488361138 1.434713246385657 0.3695880662487326 -0.3345499431750073 -0.5564973344231261 -0.8621536347752349 0.6693328022573126 -0.9965133420970896 3.242160003472599 -1.1684221416416487 1.2482507806444936 -0.84766025834789 1.111259881086236 1.2165157087215537 0.09860709765524543 1.1202763112473326 1.1406282330187576 -0.7070362015999171 -0.7843196588906909 1.9002795003599542 0.05030849595496284 -1.255228419412722 -0.696898121134872 -0.1554282462002558 0.049668851815957205 0.07594792376605347 1.4160581081076673 0.9019105716394689 0.34157972032254524 -1.2543531254974503 -1.117716904139233 -0.5240619764524698 0.4857384707847408 0.6023816829264562 0.5454451665615447 0.8265946718216205 0.9035638360094067 0.7374868473093024 -0.6905234826790387 0.3265824257590012 -1.4734098758741117 1.6790220339221231 -0.5187326782616357 0.3741644190884843 2.53089253640828 -1.5414493078702038 -1.3134547049727499 0.37159083990289543 0.5863980399259798 1.39563775696642 -0.07498707088066382 -1.095555915557338 0.9796591364832554 -0.4349861106097946 0.5622350376662886 0.03449799837899348 -0.22998965105041466 -0.4089371343130216 -0.44374353832355407 -0.3567507635812181 1.5675992024373981 0.5238231801889437 -0.6724634883648507 0.6742867018255667 0.7907781675626377 -0.2415187883098537 -0.1531561089610567 0.04752949859948308 2.395321741989832 1.3352829861756144 0.36796634937862815 -1.217216641229602 0.04408736271815494 -1.064656819526445 -0.5572684906807551 0.0887224457545939 0.9670955389435177 -0.09219335747942492 -1.7229153224337916 -0.70194044683486 -0.20347250663604705 -1.0548184868191497 -1.510844098832103 1.5680790801350397 -0.8101064003708924 -0.04914354092607551 -0.2289837528273896 0.15398460984934603 -0.4016447544757298 -0.1582405596164711 1.1822252433081841 1.2117584780384951 0.8827707262141385 0.126706829346835 -0.824547924926752 0.6796009542485695 -0.30735577501064304
user_39:16.83910384012757 4.0572074293962554 1.4175845120823176 14.307377419919126 2.4054558948375706 -3.4055306431134627 0.17839887401606 4.4826234990081275 -0.490694330809725 2.6879020706136627 0.5306558231510016 6.801353643565245 -2.991066933288048 2.2808457749888515 0.8991360758549135 4.789973586389397 1.5965186073740147 3.9527644790713685 4.226002136103426 -1.0704188382712898 -3.9398047304475616 0.9199445583481533 0.8282358435336097 1.1017235651158481 3.011866405547121 1.0788816086524164 -1.4155782137751691 -1.7602414725260926 0.8804961371811869 -2.499021277936239 0.5884302244085192 1.0681553796640473 1.8506064497957808 -2.479556853043795 -1.2990563393101362 -0.877237740292131 -0.7475912842764231 -1.963100610583298 -0.4343735769424154 -0.8844051278236031 -1.3402242583155048 -2.8706971615211807 -1.9053066957450295 2.6496454109721057 -3.6514076948740573 -1.2895867491743909 0.2809474740724854 1.5931010926188465 -0.14367713014722688 0.1586609872986148 -0.0756341421953004 -0.3214819527997981 2.2808129177694396 0.9792572554229899 0.30681109015599656 1.9688248467489782 -0.48705269933163586 -3.3807782085366767 1.3184774626170617 0.18694656252604064 -0.605522652454741 0.6411371641907772 -1.873136342143177 -0.39626150525786996 0.5738280140403402 -0.43005418346291746 1.0971482549281604 -0.3128314664744275 1.0457491496262883 1.239219612708284 0.9527689350785197 1.1940793819417528 0.33998769613336094 1.162922701586989 -2.312809992195158 2.677816869959807 -0.9054373624577049 -0.4242297698156355 2.4280389533740045 0.807066600698347 -1.4613631964759952 -1.1157828996399792 -0.9093919421874399 -3.5543812731357987 1.3024399929537962 1.1616115093392825 1.1895234541633906 -0.7903394073651857 0.5212902787626685 2.6247918825264938 2.2845701526679765 2.0779045749270457 -2.962491382300965 -1.08490427709699 -1.366849645022452 0.32641345349548423 0.7015449451458806 1.1197554577015312 -0.10092623968514276 1.3311873531350462 -2.959181187650166 2.0899875923813545 1.5128798958156413 -2.518899059782307 0.6479194927382323 -3.143733790585423 -0.5386399729805436 -0.3906310583978038 -0.589513404227104 0.5676299954473396 -0.6032239142963618 0.3221419463065812 -0.5375938666986794 -0.4513333460397718 -0.09009511814749557 0.2813950576305563 -2.0354896135641383 1.3525483497841455 0.9215364095201795 -0.9444162311365103 0.6084426643981768 1.3698754027782454 -0.5102394493981933 -0.8397797921443506 0.2981903583655787 0.4456681175644319 0.35294335328145543 0.3510752112816967
